10
10
-0.932818090724079
-0.7569586246745921
0.6936251997833265
-0.35332025679449874
0.014319439711943275
0.36859131416676494
0.12479040411983146
-0.5255722698745845
0.26999942254297865
-0.7383604046526366
1.783275262294325
0.29415976567702234
0.34487516796433676
0.740741666877277
0.2116102241406579
-0.697175845364322
0.7205012533795823
0.40371038447769825
1.4886537177048647
-2.092691077089509
-0.8842702474587836
-1.1140187967570687
0.9555137538514386
0.39872437953696516
-0.9013935165116588
0.005226198325944753
0.8917218258578938
-0.0572580032922801
0.26313084264722797
1.952415230085684
-0.2367420262977144
-1.4955680349284948
1.7357391479758568
1.241028141473443
-0.052106139327409824
2.0815435365591664
-0.736630063849171
0.4928497931432839
-1.0875736214971055
-1.2224334823517329
-0.8587077048158711
1.3736801071396274
-0.37078915768677145
-0.9295823855293246
0.06281821249435379
-0.25905855191602767
-0.7667535166742148
1.307571061770362
-1.6767905401505752
1.8020743634398688
-0.7342564032016603
-1.5738739476225931
1.6974960338505225
-1.7698414087947592
-1.1424671474332069
0.7990806498262327
0.04178681671887323
0.303534077288859
0.4754371002485567
-0.41248620559532195
0.4404806027760555
2.914232711129331
0.464769689612182
0.4127176867435106
0.8048318773073124
0.8932954671923352
0.05449851337264457
-1.6123034253147088
-0.6471479411871831
0.2991995766510317
-0.6071173102963453
1.1358935803791907
0.9466406951341407
0.7024152961831927
-0.057341262029096667
-1.02461910348899
-1.4215436640177144
-2.085273113624118
-0.9104706184857124
-1.4963170849961949
0.40258431510051146
0.48872013296173455
0.7637188907591341
1.0979211151297419
0.7741429702934873
-0.23463535082795045
0.03486222056654467
-1.6647006413243814
-1.1844851540001011
1.2161819511653311
2.8604962210992038
0.756267025261016
0.25316066327798853
0.5403163423207866
0.30470138333999014
1.8085022578115195
0.94808581170156
-0.7035441317088649
-0.4547635681028959
-0.713576346811229
