10
10
-0.565757153546031
-0.8821765658868438
-2.256045715783801
0.04903857126957778
0.6397348968099558
-0.20733903818887722
-0.3696070022618363
0.566740322146321
-0.3410021372430316
0.9887156518126036
2.0543775793891
-0.24009154558631962
2.2098370144902786
0.32500874098167254
-1.1249284812934504
-1.165650373238798
0.5743990877250528
-0.5823963375752836
0.3133977965028717
-0.4517730205005024
-0.681050478691322
0.2637490147837233
-1.8678214686312389
-1.2798144150145327
-0.5603900059342308
-0.6200362302670757
1.686684598588502
0.6896813746662086
-0.40996417152973913
-0.9771065638733184
-0.441359918089799
-0.7534483316220756
0.7095840476687896
-0.9212510452194012
-0.03124881231952922
-0.14429757749957087
-1.0458348018606138
1.4815376147485262
0.7078980521770437
0.4564351301594942
-1.2443878169901685
-1.5735188585625397
-0.28357392309994744
-0.24625303750752814
0.7584243172923698
-1.6197664926104671
-0.5282032119731601
-0.253105371281649
-0.09360504069771071
0.15916121000162894
0.6709134660298627
0.035453440824467226
-0.08982910979645939
1.6313099144775036
0.10352760168783443
0.31129363987304376
0.7645963828786849
-1.806282741372521
-0.03064083065602715
0.30155847641045247
1.564378191139432
0.15367238603572922
1.818605781819488
-1.112084357923411
-0.22532801535166647
-1.2404480777029543
-0.48891973652050025
-2.2980542363772702
-0.7391729967762144
-3.049762289500665
-0.12405530250010198
-1.9226645485567444
-0.3357233859391361
1.7064362389221337
1.9041607157502318
-1.3177385924293383
0.6084050378116228
1.7257092172677673
0.2083821704227708
-0.9618507421047651
1.2887651200101107
0.44902618051223486
-1.2646957652277406
0.018336072161392682
-0.8360614467369532
-0.037336984329995826
0.3269802557818641
-0.3137938859940549
-0.4803014414875729
0.28926735056934194
0.15440605877581579
-0.04610314906764376
-0.2103648308747564
0.7504495399594298
-0.024524318042819255
0.5294107688725787
2.0966869029644633
-0.22463604700693296
0.909706006006263
0.04804321352211652
