100
100
-0.43516609342039997
-0.0054197245458497845
-0.7239906829751723
-1.6103971001132027
0.35476019665318903
-1.793376264532355
0.2306395635177208
-1.507686471563446
-0.8655473601448294
-1.5652096379688611
-2.0602242400282287
0.2688273716834854
-1.449317149345419
0.10616595101392745
0.15611407957755968
0.584957147629415
-0.14068052382035992
-0.10808248913954428
0.8608988231581104
-0.0003219295294087203
-0.5496679500517498
0.8859814579728171
0.30479116471731055
-0.5884251737730073
-1.496846777880628
0.349221367886485
0.1670141674524492
-0.6629409543105758
-0.9188399693373734
-1.1226250836087677
-0.32826768503715087
0.30580452736639685
-0.0513532137360221
1.7427904810940078
-0.36257859769211326
-0.9518375824079739
0.08866041667295423
-0.7360160327301845
0.348299987440864
-0.7050000267110855
0.5995707005786374
-0.5060622120726888
-0.5998589765320627
0.7073342429074925
-0.26516671320445667
-1.0606534035532813
0.7021001251818118
-0.2549783559413257
-0.4730103146878701
-2.424926873580771
0.3761706261091913
0.8830712140071741
0.34158663112925475
0.3125544068827151
-0.6075887796652337
-0.46534810303180935
-1.334714625935595
-0.01668161454570822
0.6305704265687169
0.7774594494705983
-2.243528711457229
-0.4172752290461041
-0.29297910041862785
0.5991046130284604
-0.9396173503215464
0.5153784599522254
0.24204479729280048
0.049086782013980264
-0.9619389314353199
1.2332143930961197
-0.9681503807912295
-0.06693928035393788
-1.5276887037315676
-1.7124728796364812
-0.6929162407182491
-0.5771417708685906
0.07094918505308037
0.0011998409505492634
-0.542982520859421
-1.271211417125364
-1.3911934698359414
0.9551871920710705
-0.3702434982834639
-0.13624838312786258
-0.41903938349934117
-1.2026749823502092
0.8891346552013353
-0.05124678771188992
0.3336707294428895
-1.1746919605669717
1.5364519492977122
-1.0630082482504308
0.7589768539624643
-0.2830530345878094
0.8421467610657656
0.09040750966033485
-0.3271230415631748
-2.8190226451254774
0.48262104861143856
-0.7757641234967682
-0.2344445429315587
-0.06186160551231108
-0.2177542535160067
0.02006490585853634
-0.05380420743430161
0.896826579972076
0.9571475544753294
-1.4997531820792012
-1.5040083057867428
-1.1324593764902833
0.9276562190466885
0.8863963501264766
0.6776983542595693
-0.9763344515424803
-0.5623188250705565
0.4070650872418276
-1.8132152500268472
0.497467076145349
0.8911141159503447
0.08850459973255453
-0.4228738658102276
0.6548020122027733
-0.013811122340885966
-2.083071247357528
-0.644124800480167
0.7976430696126218
-0.5149049522308806
-0.8412903952643226
-0.13726986743601685
-0.8323795643608127
0.5180305483974804
0.8992922059670471
0.1507072640665839
0.19765259140756036
0.2598462695846275
0.7703285353799336
0.9580122536127867
-0.6211987018813404
0.45067683390011254
0.9145136804443011
0.60193692064272
1.0101159418829546
-0.49431826676506013
-0.9141514114603362
0.24970727623880135
-0.25637347818140055
0.21465567337119287
1.7770572051744522
0.30379045070571625
-0.2808236669539949
-0.18899871918849456
-0.3857265538976286
-0.973840495782533
-0.8489795552336433
0.2937031643468089
0.4433017426573888
-0.441009695771751
0.7559559193915535
-0.25111473771369575
0.795489379482749
0.3777805226704293
-1.0955772723172912
-0.8639290394247411
2.1833393902479035
-0.9391330904167301
-0.04691607805622431
-0.19607022942911945
-0.01144275003729869
-1.3846132082758238
0.44904351020131933
2.290683019809901
0.13381931307454056
0.14616592167838344
-0.4534007801943496
1.4871346264279641
0.4074317771354749
0.7428702935997078
-0.4738361306483171
2.921931724463215
-1.2200640781147118
1.0752679092060995
-0.6648982976816771
-2.3302780801849066
1.9990589146762252
-0.4904811271810069
-0.47205962022973763
-0.690585891288044
0.6300665906545536
-0.19675669134393842
-0.5561071855864641
-1.104197056123644
1.214190392467948
1.4010702621556759
-0.15411649520671838
-0.4726612297099948
0.0935657933700197
-1.2138890479324527
1.2924264997195274
0.8490471309761117
1.6835066864596782
1.403404251776336
-0.09398293811501546
-0.4685271640994328
1.4963483072475399
-0.2501792394270312
-0.40462499730265705
0.8362632292525553
-0.21478514193524925
-1.5463718690906405
0.598589148966775
-0.06635069169249797
-0.8175604576902983
-0.2518551704403477
0.018141605973714087
-0.01696804815560397
0.17025192225092703
0.6370721544617247
0.9225803478237239
0.6218764411530986
2.629915350216828
1.0364916621861193
0.1013087558670222
0.6643187216789183
0.16699520340349186
-1.0400943007213257
-0.15793886180959896
-0.11815144255400117
-1.8578540604488114
0.3940950529499502
0.9822695496305217
0.4610444677955912
-0.49050180396073356
-0.05773497476508341
-0.07697129023904974
0.5892381994236477
1.657792550246632
0.7526377599230317
-1.4994211863118703
0.7270891821113326
-0.6522508361295064
0.9764746891287049
0.22433885505585952
-2.03870114557312
-0.9764489937673398
2.103226556285192
-0.15683287716155606
-1.327509440231142
-0.3599796648470499
-0.17579658123350578
-0.3026424724329185
-0.7376679640083568
-0.28670764831541634
-0.4340379153626101
1.2740911927275602
0.8579418460979037
-0.43378207762804705
0.024232470561489822
-1.726218155828406
0.7692512208683321
1.4657787866776373
0.6114119679608194
1.3930932453887326
0.37817075662514665
0.39257643704459577
-0.4938431796165008
-1.4259765952432777
0.11519922350029667
-0.6537597796821132
-0.9666078148288993
0.8799693910046298
0.057914270230016815
-0.6787098364827397
-1.3311382598535537
2.3800292821547617
0.5637341658137125
-0.5372905086004004
-0.09310791092687236
1.3473963102007633
-2.039517551317197
0.5851882319862985
0.22698981628325277
-1.4220594768040997
1.6673413446970946
0.6635536946023914
-1.7939242142463894
0.30651307231834496
0.7801192831047703
-1.7999359140360047
1.067977369511125
-0.8138475729349143
0.5987873830338657
-0.20263100397129202
-0.8610717003809425
-0.7742273629253185
0.968523552644551
0.586478296754981
1.079036247740133
0.14621968843925007
0.48673189672781547
0.8728539864302627
1.5298518159785472
-2.084967088895569
0.5121199022006929
0.17982730428188953
-0.589798721271028
0.5168361869212061
0.46393685050680517
0.9593244875379191
1.7461073192231678
1.4168258245828826
2.277481342860733
-1.0799095816519328
0.31011698678948374
-0.11102675623936352
-0.8473525529609702
1.7352842587637196
-0.45914919172556123
0.04523489120307468
-0.37537142506331134
-0.0063944402290462546
-1.5111641664183204
-1.225232671805701
0.19571189693751753
0.7552380888607335
1.103710131675848
0.31892339476934756
0.6721748321287024
-0.0647105595637033
-1.7232341406378826
0.11773186671778924
1.0427056730408726
-0.33939430159664946
-0.16307737021247956
-1.8739649959945028
-2.260974464216515
-1.0553976375746055
0.30086141580413767
0.6390115998038253
-0.6743435880960268
0.20851042016747287
0.43903820288210005
-0.48491124360640203
-1.540016528394821
0.0389031106571664
-0.45419206932507794
-0.33940423793453567
0.2823724577711592
0.08750786404108644
1.05934677167171
-0.7316030153483565
-0.41356087479984294
-0.5775458524820352
-0.570405410189159
-0.9256026825740297
0.2791995735793752
0.8472770580650658
-0.1751268674849086
-1.4219829645035114
-0.8125620571423249
-0.5185777970955852
0.07781802877604516
0.08721958738848427
1.2739979586545591
-0.3382886020588042
-0.15846024864549532
0.3227571974180073
-0.3403735070041664
-2.262391655901494
1.193802864233787
-0.4432308921805554
-1.8048555125083263
-0.8509016101027019
-2.3659669393178677
-0.012321050323472006
0.759439451260862
0.262284191276188
0.04399202719308415
0.3538713397936325
-0.15906360784533127
0.026117724441257845
-0.3807899606505664
0.5249903047863091
-0.43357027670610543
0.4979847775270846
-0.8642493173558226
2.3618090544579324
0.9710003209365596
1.6293383366200573
-0.5137257991001131
3.584661619314
-1.4408880897464598
-0.6051501376722447
-1.4239802740463139
1.858410771028945
0.37068173181203506
-1.6365829233537992
0.6326862105920064
0.370095957367014
0.044089409739291055
0.8451083676623986
0.9080787842636047
-1.4923368745734669
-1.571906598119914
-0.9078910146670093
-1.0706646302241498
-2.1717118859840605
0.38643577588740696
-0.7282056063917776
0.8136898559142607
-0.26739177960432486
-0.18654984006656633
-0.2679114125404625
-0.37217070041166306
-0.7887599674639841
0.7513431527387793
-0.6348372310292176
-0.8233831072739402
-0.37091515955355897
-0.235444285101159
-0.7078296267950952
0.6324453236070372
0.019396394522984813
1.16074875079172
0.8393816074559296
-0.8677516569024137
0.5814594905864465
-0.3551293863632716
-0.1070381294275874
-0.2113945058687892
0.11171821507216745
-0.03176612698978603
0.479544338302743
-1.7180009481750955
-0.48421307856642415
0.8466169881574998
1.6448935071285253
-1.1741165968828107
0.5099885811777832
0.34711020083286726
0.6419443451302294
0.23201563879604525
-0.26332103207899965
0.39930880352877546
0.24847273700784636
-0.6301640856437967
0.7549513446434991
0.12549594180140466
1.468195119775358
-0.6364170391595215
-0.8697339955031446
-1.5264482147851717
0.40368921264788715
0.8201247086766248
-0.062165514864192035
1.5646899212565375
-0.7976474606821138
-0.5967163192329216
0.8626503054928507
-0.98110091684276
1.1014797225311808
1.3172530877840114
-1.2037036457259735
-0.37422953872499165
-0.9504284709329315
-0.414331124088286
-0.21869808135932892
1.9229360422336057
-0.28126330331193367
-0.4175353549834199
-0.3127315061176521
1.349937059495581
0.05364319461737569
0.8281198288311588
-1.2209136523418147
-0.12663477202406187
-1.0157779578842114
1.5599352932878392
0.7014978510270534
-0.9341589866811467
-0.6325211355957864
-0.760200429036584
-0.5974993486423308
-0.7562554492425196
1.2759431418799083
1.2491654243951467
-1.2785027624569036
0.08397528926287706
-0.6283988260788694
-0.0014650189504271985
-0.17839953941235062
0.8726579431307672
0.6848488364611197
-1.7573150601716376
-0.2826703393058604
-1.1113479641091237
0.5578329751587788
-0.2645413599468892
1.3717071324738512
-0.6173316399071879
1.7840769172861322
-0.3885152133209096
-0.13295024988240345
0.31577702250199435
-0.8609827125906317
-0.20688664494983128
-1.3216122656874776
-1.320259535943306
-1.8425990735228548
-0.5606326074843933
-1.7095879625260932
0.7908065631476602
0.4190509932891681
-0.8485459515600257
-1.2711064191411525
-0.38842700921164103
-1.3449398010731572
0.30160472931177784
-1.2172628537866144
-1.9888013605216035
-0.9135311447574458
-0.16057124933845748
-0.7871276096252212
0.38773532232237046
1.1913274925839479
-0.3135103724990685
-0.3484443639800587
1.6529986559397591
0.023444832371588762
0.10148783393791047
-0.4958808685386576
-1.0695305329954643
1.1970545997026711
-0.6959523938992117
1.6415445165584481
-0.6249203868860268
0.04642592437567389
-1.5214645430931202
-0.9835209676189498
-0.03836320634373817
-0.14747933176249253
0.07967154048890608
-0.778273875358959
0.009263411925423173
0.5998599001786166
0.22727767993371994
-0.4162557586044082
0.7010283058981872
0.5034043926519836
-0.46302807281589575
0.9015695937894579
-0.007070270109528289
-1.348536545343918
0.37339417680105846
0.3438230764672738
0.15591031344769654
1.1098916563679062
0.35892880163145163
1.423824739338774
-0.3673100075754139
1.361709416559753
0.0701538035771228
1.6908396942020718
-0.350960189390002
-1.059377104189164
0.44622986394354075
-0.5708991365947809
0.7522179263405219
-0.5792434414470111
1.201589891622936
0.019118876720169535
0.17454074473303
-0.48956292922881534
0.12761419638822785
0.844165868615314
-0.7018063367911747
-1.4392897898849044
-0.8016708230027824
-0.09540096114638376
-0.29555764312412147
-0.05391887741258411
-0.243291301555575
-2.061502109499095
-1.3978088782807239
-0.31015965488155306
-0.5458565411657095
-0.41803576755619215
0.32779016179035203
1.4385672302490302
0.65780582697312
-0.887868971201681
-0.14303972008873514
0.28865454565650983
0.0569676046773964
0.6543339963696979
-0.26523362523856064
0.4744432804974806
-0.06441472129774821
0.47241125686619406
0.6897298284140013
2.3113912004569843
0.26637884789182775
0.015598628880171387
-1.0405298845601378
-0.009628004301815122
0.2412025372237554
0.5360850729728113
0.9827146274295163
-0.21720732847475457
0.9687674114646939
1.6244965476859052
0.6493680826881855
-0.7805298130314188
0.9819919834841324
-0.7892845605524595
-0.1609429016355565
0.8495631247933821
0.2640715567846068
-0.9699749352632683
1.6472033042116105
0.07050231593328428
-0.5213242918584997
-0.1015661497222886
-1.4840047916885404
-0.1322378940531683
-0.3221647988199007
0.1452837545360967
0.02333415663028326
-0.599527971131177
0.35167722409698154
-0.7299214016281749
0.5660582193391394
-0.30094241661818516
0.39596315902323614
0.4734770467206176
-1.9234944990008023
1.9317193707158498
1.1225590171824382
-1.7989022253461806
-0.7647168648527932
1.511839557682937
1.7444897431549582
-0.8681556384661652
-2.6317153017072816
0.9455613658364477
-0.4796383955787054
-0.10178072839118951
1.68321198755834
-0.9834649813830081
-0.15450799584256564
-1.3017768311266404
-0.781205520304274
1.1671865138884536
0.7153370349710424
0.8264987801930227
-0.7294479048341034
0.034249935511170886
-0.8325003633494424
0.13661336718394027
-0.49732752861574503
-0.7617937615454716
0.35596025491602723
-0.11339395049449337
-0.7983922989274589
0.6446449392725953
-1.8355512904212505
0.5367156949893894
0.6197946191537158
-0.559706826466264
-0.08151962024582261
0.25605370361424273
-1.626116606566169
-1.1388388011788813
-0.1463292073082548
0.21752226098026411
2.736942209775593
0.05211607367637028
0.015259967459494622
0.38343265842505203
-0.8795952759361572
0.41422384029082576
-0.5189884428487033
-0.10120820536329143
0.5010491586768053
0.7064854308668655
-0.6985590180496624
-1.1720453946970624
0.16950049514192253
0.3229501678504281
1.1425601247988795
0.5694393890653836
1.6488418103586626
-0.4808993169561964
-0.5161682330799716
-0.395650746189093
-0.2593658036380165
-0.6524543674929238
0.21897050361795414
-1.09010382849259
-1.0945314951522809
0.714898990809962
-0.1719830836145959
0.6782072435783145
-0.46538985966102364
-0.11136197660337335
0.11389121876285921
-0.11188453643140156
0.7085763400308979
-0.9970203286708513
1.8031800203365802
1.4895528704396195
-1.3755566947323017
0.30550998451363764
1.4852693075003969
-0.6831011514661535
1.3784714754583836
0.9268723896853192
0.28481915414037134
0.7697279904662229
-0.7163448379442466
2.7829090438398953
0.2875395385225846
-1.1128318658957272
0.7645760628614063
0.20853528567646382
0.8319286369416311
0.20167638800951507
-1.0143250632765697
-0.9140982071814128
-0.8933518704583835
-0.42179946766039705
-2.0564886002256104
-2.864072882035339
-0.001827372965655333
1.7938819120563367
0.36530195940931526
-0.08282473142234802
-1.0162702907387924
0.049934166303655034
-0.35344683577380853
0.4225599187834458
0.1852011274178872
-0.1260149494285438
1.8552249573079453
0.7894403771276749
1.3664324643300645
-0.9377889140497911
-0.4541587198874129
0.7264868386966056
-0.5405035478225987
-2.2337964838860174
-2.846629341769768
-0.7451805664530059
1.1126935834837623
-0.19154584731810625
-0.09269170106411294
-0.0398587046301393
0.7774911311119412
-0.08409763019141135
-0.9051376870795332
1.1739898411103582
-0.1530815967349926
-0.5459026805694195
0.8568109550900862
-1.4875626140461486
1.69895809768268
0.09526104588710854
1.6429188002428847
-1.17859741816084
-0.05511376452170537
-0.6618506521310339
-2.1633896461720945
1.1468353447922601
-0.26070928731619364
0.6768223898566534
-0.6192393840462663
-1.1750731877827507
0.02463483712873447
-1.8515975363390578
0.705103290555757
-0.4809138700065454
-1.897192795330263
0.34116200063393565
-0.33789658250478055
-0.29721338017651433
-0.5563858641275098
-0.5806231287027952
0.9887721058898998
0.46388696114199435
-0.3233869913265687
-1.0004171748971815
-1.3548557669063117
-0.6822979101742818
0.456592499469341
1.3394001201565389
1.3936224850141565
2.9049117359538674
0.7313737363890053
-1.3398775693649858
-0.6347673394504271
-0.9331787910979797
0.19909530735055408
-0.041762682829139
-1.0764133794742676
-0.3803425446100912
-0.8495251049818578
-0.33974483393042676
0.5877182287981647
1.1103430914394619
-0.8077144381129219
0.4110118411236707
-0.19957378849370627
-0.481355928474659
1.7807473659297273
-0.5510422497449493
-1.1497781268892253
-0.9874762633859512
1.3288574064578502
0.48810288043178707
-1.2999984204877053
-0.9616048274401707
-0.007135094952849864
-0.52239387743865
-0.9952913638889512
0.6070987674441023
1.3350478693983112
-0.20178337020579404
1.6289562589350994
0.63477699044704
0.35369286519230025
-0.3350390982513531
-0.41083328408903264
-0.5290182330337267
0.693510746179772
-0.8562628042705284
0.25591153418281193
0.314929693550421
-0.07840948818573557
0.8152197945644934
-0.1752484436027845
1.2438125555635409
0.7409171356676629
0.3330500660353918
0.8777161881277358
-0.8018579221420296
-0.6227558570520868
0.043993150010579574
0.5459903751062434
0.5152639889524456
-0.3235766310242354
-0.3464893006718577
-0.5906617291685459
1.221411261308314
1.4504682369744932
-1.0527475665851391
-0.05395817607775205
-0.03505185255146607
-0.6581647454376774
-0.8118434795342079
2.0146408626433776
0.9163138259415395
0.5327164596664368
-0.07334759635296222
0.10073609472089214
-1.2278444155902124
0.1879065505206494
-1.6983723166934546
1.1559626791604167
0.1905670071082541
-0.8671280229518774
0.4974741518427688
0.08196630217558125
-1.5884900362244088
0.07924682096951188
-1.223630315317065
-0.7947857623211212
-0.908242798354541
-0.3966869603805933
-1.4908686042926207
-0.37901566075543935
-1.7788565539202752
-1.7237377740048432
1.1819986142871748
-0.7223207612878844
0.37184226980721036
0.7552148481366197
-1.1252219049794314
-1.6860168692907616
3.04587150443265
0.8187589930390463
0.989184553920043
-0.09832547156337848
1.0702322747857669
0.16212423930146577
-0.3909418150438774
-0.8403599212447203
1.7567168247378837
0.77300244413214
-1.2933689317422554
-0.9672372655174613
-0.4027959560306379
-0.07620612611302718
1.1093292073035452
-0.7419049759274838
-0.30586288340036494
1.6476849745556374
-1.4915525851238818
-1.9824847100657925
-0.22915269868860247
0.969554157570945
1.0836168981117418
2.88026398020624
-0.1642303331338998
1.0708188415411228
-0.232886651360464
-0.12305269173790095
-1.4101567345490822
-1.1631137418241229
-0.2553402329836774
-0.26996186604282235
-2.1216895076284374
-1.4831674585806256
-0.5932388192222003
-0.2514324777514555
-0.217758735873737
-0.5469693460684861
-1.2102927751133548
0.02602724797225144
0.5596556105159087
-0.4692378981856789
-0.5690455965828374
0.16211443551749727
1.8627784085546975
1.254186042610082
0.8625810896621637
1.5545228366488217
-1.781743594314654
0.48890753165487033
1.19761259615195
-0.12798729387853622
-0.8640477109742951
0.4775665413436103
-1.2800353487967604
0.5183761232731857
0.30049881005713447
0.21795310170271298
-0.30277199916576963
1.1528460520925847
-0.22778472941335348
1.815691534193871
0.6370891984264989
-0.5682334141025938
-0.017334887060328177
0.2895718243632232
-0.9504785769956917
-0.13558024234848381
-1.1133167550563585
3.463471495276977
0.8297215836336593
-0.9474588909144835
0.16193315604348588
-0.37627985640683387
1.2238746586140883
-0.3642022609129262
0.1547863921029737
1.2413185653732284
0.9778546859646196
-0.29586558637548743
-1.5522190782614285
0.9229137223429412
1.6631032061053825
0.860907894312655
0.40350800003817733
1.9666726887665351
-0.0038398819826131704
1.4226012171476077
-1.1708702284912447
0.8609385279047673
0.6808924276653302
0.3812350614014844
1.6156865027406566
-0.32230036038330856
0.364591026752365
1.201887965182272
1.4660286547273018
2.352477702232254
-0.5066234482773792
-1.9042359210623019
1.0259647722428336
0.8937596790763332
0.12782084868850213
-1.0535916135773753
1.9684351302104965
-1.933535724788889
-0.7773884906108707
0.5355284041479836
-0.6939781208453433
0.8574862454883049
0.2744339566614526
0.09303577483353251
0.39859226976336604
1.1548461195231052
1.099482798873423
0.19154255500660702
1.2604437729182718
-0.7939360229997938
0.5967541609581533
-0.5744536067013339
-0.1506454108932141
0.5823561322754458
0.6140866587961757
-0.7837794011582092
2.6715179266201794
-0.3966484680755135
-0.3653664998619655
0.0721956611040779
0.3706614971017152
1.5061316826391216
0.3508621835212434
-0.6421649679045295
0.43609286200781466
-0.16687218188871017
0.5115684656391762
0.26003629308744963
1.4895604035702645
0.46515800562663456
-0.46081651746649044
0.7306966395416444
-1.1602715349577355
-0.5286824125064061
-0.5760667350246297
-0.6975604811755126
0.698701428054787
-0.3223360037885953
-1.0826444137361515
0.253223729534437
-0.6807237020446116
-2.418546307632325
-1.8343647389786903
-0.3986057974701322
-0.373999265678197
-0.4138201995399682
0.604746803188561
-0.42640233365669383
-0.5746743564450509
-0.25979294559760674
0.04160133964947203
-0.6110937578231327
0.5910115388212156
-0.1248276780856044
-0.5749979247047234
-0.845791108490974
-0.9469051851919073
0.28959379628688237
-1.785405329408186
-1.0141160855809295
0.017900256133394143
-0.5083818124246016
1.3699058127681925
-2.1934586254810635
0.037712920790480414
0.3326065188077528
-0.2178821336529481
-0.2279423123695809
-0.5782178333320954
0.11503237075780015
0.6562828206804903
1.1200855181476739
0.42183381261645136
1.2016844071800867
-0.29563129524418436
0.44310358379819276
0.5508756507935605
1.548922024129744
1.8519291494346448
0.660348014180145
-0.4659788571041783
-1.7694369297966024
0.4381036434452362
0.4177909916742226
0.02205499318453962
0.31759041365188867
-2.882656340753991
0.528810545375079
1.4019472423125954
-0.41640545553713715
-0.042148137253678115
0.09553086227683202
-1.3303186071650785
0.0553364087013176
-0.9370218427640732
-0.7266405747194327
-0.6112539618824488
1.5083629440771378
-1.3754285125290207
2.1142167730407166
-0.9790288784572511
2.149018167036592
-0.6840863643173694
-1.3189877593401251
0.48697953821457246
1.029490161992081
-0.315961105431998
0.30261440751902396
0.48126893854304736
0.11406155478556208
0.12682992312287994
-0.784306202658056
0.28297365925137064
0.18208020068715677
0.8736684191936325
1.5754849914853675
1.9814753293670708
0.3240204404641033
-2.003709027172831
0.656376706379707
-0.45000326925863543
0.6389485259940763
-0.33009886681912004
-0.24519891343199848
1.1645921307588987
-0.34239173246390336
0.9238624196663349
0.3819748137120268
-0.9985303113055513
0.40346243274554205
0.8875166018683486
0.8529916754958589
-0.764575460670583
-2.016378503750613
0.6101548830849535
0.9030021347398153
-2.4017324843589045
0.7635122123228972
-1.8871707857553552
0.018952022248178796
-0.5166990896243976
0.08396766166650163
-1.0705250421582682
1.7762331237637383
2.026529826262964
0.8907088035986118
0.07871173763931051
1.2954091931180969
-0.07707358137988507
-1.4258244499022072
0.6015782944084564
0.13742786860620432
-0.5023329171338469
0.8110101524377687
-0.03341041196378612
-0.6956000347248166
-1.0123943806175406
-1.7180724072660496
-1.2797841602326956
-1.0574007186270422
0.18028896444584144
1.0655878990498842
-2.2622132495068
-0.1289124446364475
0.789369339715427
1.9914462819808247
-1.165949407078596
-1.270663790028825
1.5437514966197834
-0.18962228375143791
0.3318502381594114
-0.21638602279686175
0.35553655470430007
0.9527559644299699
0.17127580066975442
-0.7079963203332807
-2.357831256769678
1.151742986020125
-0.3180760191681099
0.35744186503914555
0.38450379338940593
-0.013360611176831322
0.8024956513116152
-0.15914998550686865
0.6754606639184543
-0.8031240146655311
-0.7833484251201387
0.5571213734701842
-0.23387749760200618
0.7411457566832551
0.5014612727946738
-1.7592546619191034
-0.829159191984969
-0.3927945580918116
0.8325469198904284
-0.3166835727983884
-5.9619237971551894e-05
-0.19801950457349954
-1.3926131767689645
-0.6817951135731364
0.9712798611027529
1.2976536713342481
-0.332682143343451
-0.24461836364300052
-1.334786027826285
0.9428402562652282
0.16704121343945047
-1.921340814243396
-0.15536992900984334
0.14911419938448933
-0.4127369000944228
0.5388453425935309
-0.8783576828787854
0.7383091350060145
0.6304751694003278
0.94961825357998
1.5387950217395434
1.6687322217652016
0.5705801045084284
0.10405907712455985
-1.1728319487551973
1.5817168293646342
-0.5135193655965136
0.2089462223270294
1.7253890780327612
-2.0350144173059115
-0.611113315077731
0.19725441363362162
-0.5542773139902845
-0.9660910388349822
-1.5053704484833643
0.043950477159740785
-1.3855784063190306
-0.31400816249067953
-0.8742505716064037
-0.8278935720362478
0.5527786160216298
1.2262983673194323
1.6436056029696373
0.5930741829817124
0.9519125418740654
-1.5987354583549165
0.5055456882246903
0.21238316478013722
0.8489757480765823
0.34862678744217507
0.2702262395137199
-1.0439113110280178
-1.9093717561816517
-0.7455917744836389
-0.4418040763962221
-0.8822982865736378
2.035854992319655
1.518099773932458
-0.9876212197611255
-0.54773705440362
0.7592188560895137
-1.0611691879432807
0.06582819952077504
-0.21764135550447292
-1.0280881642706887
-0.4073340389576783
1.393784151951321
0.04752644136614738
0.07879642196861283
0.6670605579492568
-0.24540109565455906
0.6957157989876945
-0.7869913288905319
-0.8990165088190507
-0.08811426169717688
0.05927026197628453
-1.7049382593160713
0.9340402636793157
0.5647666975541439
0.9256944120671613
-0.7016370167684672
-0.0739902880377925
-0.13063741755075392
-0.322320958181658
0.9815804185947798
-0.5935091912318625
-0.09503342534219868
0.2189296872014779
-0.5522379320728781
-0.46017750528009893
1.3837344753247662
-1.2984072764317682
-0.9987788866244929
-0.6430959313895692
1.0173445259443794
-0.6151051150931077
-0.24874006021096307
0.47015554897542994
-0.4224879853446781
-0.8249907733498452
-0.008430258012382074
-0.3397290277050916
0.45158059421056973
1.5750395187725348
-0.5024404770521209
-0.739241087638746
1.451651531314223
0.3873608817344024
0.30230860091666906
-0.5932080836062791
-0.2973390842920536
0.9431051278660163
-1.1915571524032087
-1.0511221339072434
0.2807804652296956
0.4142957917587988
-1.6635072709458214
-1.0513500337985524
-0.8604675245914719
-0.4499739293347584
0.2666281700838842
0.30553170805290253
-0.16566733133759218
0.3394302813188219
-0.8492729513866996
-1.5896021577894974
0.32624635448997574
-0.055960549229646876
0.6495846221687795
-1.5723022445098445
0.28805210712968116
0.26302471933575533
-0.026183219513596277
0.47500354264500755
0.7999716812251235
-1.199780691368889
0.6578438104956948
0.9693139996206734
1.538243320587266
0.7816321605330608
0.27310071365064414
-0.5553340519982005
0.7693254305674682
0.8393593322288646
-2.777882138613298
0.6643503392165014
-0.5484720189198239
-0.036461159059864
-1.311659982157748
-1.7818750978313043
1.1286151057919318
0.36370180693997983
0.5282849787994148
0.7184757760150942
1.5976965972306696
-1.9737558206910588
0.0074523365792655465
0.91533168187937
0.5070562585733833
0.5528669807650286
-1.2185928732410445
0.3670674824406978
-0.4357400753454071
-0.1592488565678343
-1.722876266716502
1.9087353921640924
0.5399404285756505
1.1912444186313622
0.23706470233731228
1.1045820292580124
-0.42086131445446584
0.39054303628968273
-0.39630901469511487
1.3848477379235726
-0.5668753791637041
0.5781491361228303
0.3993184680470301
-1.404274104405145
1.008315803262063
0.02066902914784571
-0.7696653799448174
0.8366846013195152
0.9687168614098873
-1.5720703396890061
-0.35254644614433145
-1.6407597659120257
0.7581490584033085
-1.6295466983287856
-1.245695085259214
-0.03797547119748278
-0.15898860294563902
1.1974039547718152
-0.38864480154317654
-0.587398582771527
1.0781081877047096
1.8981082831092775
0.5157682562438751
0.3535488231597358
1.078253807018671
0.9992830398547988
-0.44880092041397424
-0.3893914877300577
-1.7505510819693635
-1.2487578079837207
-0.260322602889358
0.27659998942868946
-0.4617051717228852
0.7639139403935248
1.0218147561033921
1.334040946927496
-0.6755228561078108
0.07836726326852674
0.06476121574572008
0.5180668420101942
-1.4104401503359287
-0.3349556969857888
-0.15357590293415108
-0.7624732138592655
0.9177191791268633
-1.428744094774181
0.5182919258209125
-0.8324415260825192
-1.0361968494761304
0.675261576482393
1.354785963002596
-0.5050640025830968
-0.053191695200719445
-0.5908136740826568
-0.6844097854957022
-0.42988390781362046
0.16563117915094144
-0.027222488464984224
0.4977968518859168
1.450911399747406
-1.979937255259655
0.3478391937387448
-1.931250542821842
0.25054794362692145
-0.9984360777609357
-0.09736706973005542
1.461855880561254
-0.01609365553250401
0.3247862064454426
-0.2932885702446613
-1.5717810871942142
0.3902986217485722
-1.3567002775531851
-0.7198260352615753
0.49146006118068025
-0.347888881556193
1.8339455158792666
-0.402773702413927
1.4143610862624765
0.21773075891384175
-0.8446140039204736
-0.1620303982390025
0.7356283713950474
-0.7233206124313405
0.6891866951683797
-0.11628647925770991
1.6987615320036447
1.2149134951677694
0.6624418187167628
1.385911110565103
-1.241985159458358
-2.2498640035382342
1.8759050694713886
0.8342473620039105
-1.1277791019630736
-1.215656888308238
1.358036575202497
0.6166720100662196
-1.5952844777085984
-2.1368345726406104
1.4472546656632614
0.5764750377813408
-0.8841699683098718
-0.3251489307855687
-0.13983347301058488
-0.6479797126658442
-0.6245223611254382
-0.9446881337949508
-0.2671889648624481
-0.3280874755605863
1.5678301923029254
0.8955420699316041
-0.2752692370240596
0.6807572922632925
0.09189772584922956
2.700081764167846
-0.7420298457200123
1.0549561175447586
0.26977503192902413
1.6517504547365882
-1.2116530639515253
0.2916112832597513
0.2279021541581458
0.18817433572160688
0.38493106544753947
-2.38903439812432
-0.6146285078044906
1.572578885833774
0.2391261585500187
-1.124109780068589
-0.9852773825017171
1.890711903226112
0.6606030949838695
-0.5911762320921894
0.1116176063951146
-2.2313606159439985
-0.37513979720480883
0.8918193895009902
1.0085486674260549
-0.6856962430527063
-2.253082196618363
-1.179691227416986
1.207195594212687
-1.2740870641066286
-0.5448376642634809
1.4981659920840826
0.7363329563190502
0.41972230346837525
0.2909236230435549
-1.998822451288606
-0.9392905232612685
-3.0630208596127213
-0.22587511186730044
-0.9526536462839958
1.64774107643889
0.683744956516797
-0.3412527464197066
0.2280671950389375
-0.6818004341247109
-0.7783419504699196
-0.4777622189122402
0.21002528787445346
0.5082881569061465
0.9694152729424895
0.09194774803495684
-0.8208372184134665
-0.9796371644407106
0.3382165595099183
1.257850130698127
1.041067116710575
0.20953018011112873
-0.5084932315042137
-0.2897145662863119
-1.6431194245997314
-0.30014028235465545
0.9699868077094276
1.8445008305743422
-1.5360861075307666
-0.8589036173430891
-0.7396224689147545
0.8400016118716404
0.4517382820811291
-0.48962675134699035
-1.5237263737860145
-1.4345587962481772
-0.03476505388163457
0.7858372713829541
0.7717572377272766
-1.5050819461085752
0.18965350030484115
-0.5734628605983354
-0.812487266100256
-0.7294618381288863
-0.06691708673424308
1.0646526678165409
-1.7100743963930571
0.14455350499463776
-0.19940586616391295
-1.2760505983402688
1.143544439168714
0.47571482816252286
-0.7214701626897791
-0.4256695840557436
0.33492784353576444
-0.5467301282660728
-0.025177734315491414
-0.9598376817828523
0.6021178473707278
-0.0304831432449209
1.731351227850513
0.4432446882881766
1.060794952941662
-0.5633027627024677
-0.2910465485518541
-0.6819811466920844
0.7484299547126758
0.2642062543441592
0.9049658595374855
0.019341721847859053
-0.7516585935873982
-0.010499487233178183
-2.0589967931531974
-0.5671298384955045
0.6623043211509122
-1.1632371312182928
2.3445152646316316
-0.09971453347395437
0.24615550477405643
1.4945775694160135
0.2694303723534927
0.4833054326204219
-0.2902786693478232
0.1651632704926756
-1.675038891285766
-0.07040576790375182
1.117709937132779
-0.2686677868984482
1.5357739515431312
0.38138684534491635
-1.1096555292392423
0.9034793793233762
-0.9864972077941452
0.5673098329032632
0.8017698273363132
0.887521841755524
1.0381537879599165
-2.0962953344909177
0.5632844250290141
-1.5406887215999305
-0.8802641649587168
1.161294322538746
-1.0517778714973374
0.3070947697137839
-0.3896866945613962
0.06770090353803224
0.9192435955453158
-0.10520664579996203
2.832579314928314
1.149123449927826
-0.31670117736495873
0.9885703310457371
-0.46548283288422865
-0.09991270464595818
0.08468269884798028
0.913389844395768
-0.23611012601850861
0.7457256179155018
0.30399177961297114
-1.1156230037357313
0.5879123353027795
-2.4713834637518044
0.5099594637738977
-0.4447470482305331
-1.0290842248856567
0.4000584231028575
0.6970151029071856
0.43091647086958923
-1.0411899272846856
-1.772777386984687
0.16088706382861967
-0.5951093193807974
-0.4729449555174371
1.1812123695295127
-0.12673796651695635
-1.1636065688585577
0.6566133555090903
1.0986847725464628
-0.2041157968024427
0.19894075272812692
-0.6411851063314694
1.351829503847751
0.5513781474108799
0.8611692850922565
-0.4507098096487312
-1.6689456285066808
1.0810249440482227
1.246464094199856
0.1382776424160281
-2.104929626664094
-2.4254695879079264
0.6109635658483447
1.6582978970023676
0.3552251097713023
0.4636290986475207
0.8913620309893305
0.33285525395731996
-0.341126434880753
0.800527355696016
0.19966470513702222
-0.09068808544713006
-0.8529319761539282
-0.09727464418859597
-0.370700705017339
1.279018937852287
1.25711462741841
0.9914361500737732
1.5640529474689637
-1.1480058438069787
1.0438430277030246
0.7807347199485428
-1.4415150926085336
1.03770751604242
0.5150116222901661
-1.0289645925398403
0.7278869119211343
-0.6311016286135326
-0.6345758749131204
0.5048445086257016
-0.5259482424374802
0.8255824849467016
-0.12374818126178405
0.813939135923238
0.44442107062398845
-0.8676595480498615
0.7499618553747793
2.459278040951908
0.5435186753084859
-2.1768195508856034
1.6368695614736952
-0.8899579330766395
1.8350064697468311
1.3828567404980134
-0.2514065963875297
-0.4444934029154941
0.5575250527979029
-1.1504334902400835
0.536267829130541
-0.8830049445490203
1.394480980040174
-0.28934149073066384
1.1383807586913466
0.017764494541025164
2.88212840284721
0.03151598213695487
0.04140628856007668
0.7903133483485428
1.63025004503618
0.749565015942542
-0.31796377431378386
0.7749851362437293
-0.19378923682725394
-1.6143814163563197
1.4490170540324596
0.5863022348974204
1.4703649598786912
0.14840941185835013
0.3341863303824212
0.622874092831635
-0.7222586716342215
1.0116525702833457
0.677784274482639
-0.19044837003936205
-0.03085396405029189
-0.238574350135247
0.09719574339403411
-0.6561120593864179
-2.6603823130107167
-2.1145542817722482
-1.2298056709501193
0.44529932860516785
0.23842170165646395
-1.45089921778072
-0.10222316269255034
0.929309154360824
1.0531041389050124
-0.9586730670165647
0.8299158654347633
-0.7605270246974174
0.18158019911040046
-2.212452860334551
0.5712447168250008
-1.6988881061440644
-0.29322310806998264
1.739256944108239
0.5817370057871849
0.03590699761019616
0.258353773659706
-0.8317227351262783
-1.2178095226299515
0.6419844027606383
-0.1436547243558529
0.31367003926108944
-0.8410831682438866
-0.6667867922356826
0.4842808702937419
1.475835684958041
-0.6606674498405707
-0.9362355086372574
-0.572899028637608
-0.7671528163104344
0.44465493483432506
0.7934465736322244
-0.1560302056191311
1.3019893435161911
1.3272601059806712
0.7185591593280571
0.20568649055729024
0.13491013641938718
-0.45508409587483817
0.2196592374857918
-1.1202547451277012
-0.5879105734758692
-0.14455724568973607
-0.3120217352213868
-1.7709820112365149
-0.1079066797734717
1.3648228236806226
-0.6217840554076473
-1.7839133382082724
-0.4610382228509748
0.8848049569435231
1.2299117974174685
-0.33205410185747514
-0.8595838877723284
-0.7201862092401097
0.744287089028372
0.6678558566435429
1.0268308100228356
0.9209059975241882
0.12755614839303434
-0.06130876537117527
-1.667751373996802
-0.024191418511827083
-0.5623881492356356
1.099878682466978
-0.7450820245451452
0.8699531683842006
-0.26177713711598144
-0.9174315678841574
0.6406624165817899
0.7801782025986205
0.834332954199504
-1.3503178302614098
0.7569058818405332
-0.7777217884953569
-0.7409606984779995
2.4511959290666128
-1.2477214571248831
-1.2071733985129318
-0.006315766151703646
0.9372014766038312
0.9943689989290729
0.5684321826124138
-1.0298664415887098
-1.32844929595825
-0.25919260414612727
-0.5425775196986062
-0.5602019749925737
-0.23958973735665456
1.939466594459742
-2.039810507307249
0.7387353658147546
-1.519967743058158
-0.5383357433861252
-2.582471388880134
1.4008284006224068
-0.9564148443138594
-0.858488144804027
1.807201639122028
0.30129526855558353
0.6678498799874787
-0.6673245617379049
1.4116322255646867
0.4858964169949302
0.80478016087821
-1.3614749649833402
-0.26099967070008595
-1.4390071945215892
-0.7175876023589715
2.3339067908657842
-0.37604174846974936
1.8696911627942885
-0.2640811568565935
0.10761163366611777
2.4051459264592574
0.8307025277063138
-1.0233371149908113
0.3824409530671489
0.5424625362186661
0.2723498410286674
-0.5806704830464798
1.840603975335674
-0.4629832705806853
0.9508740407371162
-1.4979116458893726
-0.17230012981214443
-2.1409363943438025
-0.4546496583096544
1.660835057911932
0.35392451534933367
-1.629834527158579
-1.186620940745661
-0.12118945178770847
1.8690206828771794
-0.17489662714973955
-1.272620974697666
-0.47508992175296905
0.6040669720337345
0.6080202018309673
0.7025864300829395
0.4613135469803783
-0.18845446066324348
-1.1764276268893104
0.7489728148796833
0.005480837861135773
1.114966228568176
-0.7158912683686545
-0.2669274938407302
0.1565782914630032
-1.9806747083813026
0.027888944711426743
0.09531440205015211
-0.21472766330613022
-0.9811093054261238
0.12030810113043579
-1.510998280485644
-0.4337425883180919
0.07937481738813076
1.2038794837100797
1.701768330364841
0.10324107385936426
-1.056981144964084
-1.0015879748042427
-0.6117881995200568
0.40447043381049486
0.9752191685980196
2.4996274765283935
0.7411355549503329
0.6323700696073279
0.24878088250106747
0.8184230760207043
-0.4062141839389846
-0.43484052299755077
1.197604850564764
0.3555802289854241
-0.7603732132066698
1.0316947736368889
-1.795329699161328
0.8714134072075325
-1.1151507312409605
0.507133543718893
-0.7806026214323328
0.4934311632630226
1.2088857485101199
-1.5945819966346861
-0.7015834575875608
-0.3606216527490821
1.217316058761361
-1.8216389438703569
1.478818963214211
0.5602129718230235
1.2101953839009862
-0.18077559933360457
-0.2586987000612746
-0.8469111540779767
-0.12446121284203399
1.308837588929139
-1.1942172473937418
-2.503250177194894
-1.246749147747379
-0.9730922960909775
0.981383872800789
-0.17396767896488513
0.2755653369281606
-0.20832813030762898
-0.5838639507787
-1.3500574637766423
-1.325259690341385
0.8858124975783208
0.6744681826894098
-0.09942826984522787
-0.2846334207829195
0.17759556622015538
0.5211454740636905
1.2553655692298256
-1.7174425410870038
0.8431489482649402
0.28261519459418694
-0.4061049994045872
0.041434321667453596
-1.7725359588495624
-0.13627324965063917
-1.2642035844560753
-0.3325661918785558
1.5431539726235814
0.7258787579320249
-1.6019188889218383
0.549417581272165
-0.13125669902943074
-0.6568023345063966
-1.1212335355742282
-1.2689065414602096
-1.6642714626154917
0.2549775695432905
-0.8286001519752543
1.7580790972842153
0.10635292300364006
1.7547960243628562
-0.6926293821210321
0.31779414219817653
-1.0161908525883212
-1.212019654066768
-1.0155268277177614
-2.1325831334707357
-0.10884416806332771
-0.9668595016474119
0.5167267916516638
-0.9475455251181013
-0.43105344099079496
-0.4432120506341037
1.5948521281540773
0.6228481878174282
-0.5805673395563128
2.306516293558006
0.9300770208068596
-1.9312034902319766
-1.3102609180334455
0.8456361397586456
-0.11463768795422336
-1.014307254605647
0.7469330786078449
0.5080541979343208
-1.9857503866689452
-0.22302597688123152
-1.600828044000158
0.3447525261067162
0.22211470532651303
0.2581000833025954
1.2946326295547181
-1.7111322663500728
-1.500709505811618
1.5976697025468969
-0.12063686208628983
0.8316561664086084
0.7712882527229004
0.992464443740802
0.9570851417838605
0.5581819785604042
-0.8967379871327458
0.7510884792752459
-0.13677537816469315
0.17948608899181512
-1.565894468648086
0.7700038535965671
2.330638703173446
-0.9188829831633633
1.5444578074308895
-1.0794389325130933
1.0130911031517953
0.8897931609895273
0.2411726317272619
0.8081058412941803
-0.4820907388037581
0.9475988281829865
-0.6475474414846295
-2.3706122002301724
-1.0219438257217532
-1.304127673287222
-0.9652154238048024
-0.04180577829728296
-0.3279224400878768
0.22772581166449787
-0.0021883982410386862
0.1718068053181019
-0.6786099351955777
-1.0545054174500665
0.35760912248480525
-0.14548738178897597
1.3609158229574592
2.1383355041492247
-2.1160995244992535
0.13751903981015942
1.1451919152383117
-1.0843884845718426
0.442142216803723
2.036349609934046
-0.40133858848837894
0.9452582979618609
0.7510559575276105
0.2886645738518347
-0.611424166396086
-0.6614035756631794
-0.811939454578386
-0.9648971829915302
-1.091149844210701
0.7533478848191965
0.4312175574220677
-0.796017337334641
-0.35562983043035123
-2.2355561336337213
0.3944556273365319
-0.42449282614015504
-0.45628346458913976
-0.09187836285810953
-0.49398987799828137
-2.130835288827642
-1.3405856211208922
-0.6464721474690261
0.5344867142732145
-0.16107387120543895
-1.2145451296871363
1.8155951668251913
-1.3086384485467923
-1.5657233689635184
-0.194836990898275
0.9019633393334962
0.5091473652321573
0.4863939952330463
-1.3667283784038584
0.1292281192257446
0.01725677150795499
-1.1036686848886659
-0.0926833141370444
-0.8723844912408422
0.34364397878096126
0.8934591601838221
-0.4418808836535741
-0.27723657718954364
-0.9695475484345969
-1.119700097328267
-0.4151609493074513
0.49584807329566105
0.3346174729631027
-1.6910310279217928
1.180398237696817
-0.5839772362066745
0.8515915877924226
-0.15954317625327577
0.6974982759382254
-0.2227972894246893
-0.8197974967438574
-1.4104280782438805
-0.8526466380726019
-0.26914096634120904
0.007866924172099252
-0.17978775705364058
-0.7176407781800316
0.713040222292608
-0.03972065612002225
-2.3529203980303377
0.3472079649544962
-0.8332657584302093
-0.33151449383007947
0.014734321512477755
-0.21282290548564328
1.9466311574602297
-0.12847299012028193
2.0456625452882022
1.1024928644171685
-0.7147042837147842
-1.747332207301385
1.2987600192089443
-0.9397115528847455
1.7840542430036308
1.1910383321289475
-1.8306361499678503
-2.2585977654885117
-0.8121543049589144
-1.237050698138839
0.10804547070088895
0.31267064914159504
-0.2655551457180436
0.2064091282787888
-0.4377440884618093
-0.299233161142174
0.01253305646638907
-0.7336927492828337
0.6691827350755101
-0.33144835397797867
-1.7026905553904979
0.40795967686630724
-0.08970946136156892
-0.4893861220305296
-0.5665724877715674
-0.732543007743255
-0.5330655197095381
0.5640372573847918
0.35352763915650304
-1.532578968695664
0.26043024422213246
-0.9619725429531405
-0.7498951066474305
0.3961408045328988
1.1945751992708722
0.855496362526931
-1.4491630984488921
-0.5179025089369764
-0.22493946149467278
-0.30890582787161325
-0.7658048170380104
2.6743246189861667
-1.1972240300171018
-1.5888801844104532
-0.5954129230292292
0.08177093402748786
-0.25439028241701767
-0.3620878199456698
0.9892901347076546
-0.8378663711267651
-0.2786676859447644
1.6058452121730034
1.4965878224597284
1.5164435936547322
0.25907945908139285
0.9042460007308876
0.9206514126488323
0.7429817081378339
-1.3454799067339716
0.8414150434285625
0.36611003213736815
-0.080105375649371
0.21662048224845457
-1.686209939963958
-0.2151953818948067
-1.7760440506029584
1.3941295984486992
1.1662328687716013
-1.1194500232054327
0.08247286729013756
-2.451242449794133
2.093442167034665
-1.6534416360744966
-0.4689995225933538
-0.8079868383712228
-0.5732658978619812
-0.5466538558762432
-0.3266487676155618
1.3623939322182712
0.8491313742095059
-0.5463723429732482
0.6755629335629189
0.07428817872421366
-1.1456146596582795
-0.1823895097032375
-0.9921853116152087
1.198704864998412
-0.6525738482648054
1.0637332192993507
-0.4045556667529661
-1.3263731288307719
-0.5608846981039785
-0.17773825856916392
-0.8907708722355548
-0.9836870266977483
1.1656313889272127
0.09135082514697523
0.07266434156183367
0.3256414338919127
-0.8827137490230449
2.181827148847777
1.3582868359822513
-2.154872649428193
-0.44151985293751655
-2.6487665007189727
-1.0470769484214737
-1.9115709717811222
1.5750917548818593
-0.013481966660955087
-0.5222361808972973
-0.48483495533040055
0.07417387626159462
0.6995932807136321
-1.2044784223126872
-0.859719992141328
1.1590833634120474
-0.6424807027446671
1.0901612890956902
0.14954447968838694
-0.6123137306092401
0.16320453837660318
-1.2503395002957363
0.5876737397797874
0.7826472339562703
0.0021727569162864023
0.6853296201187324
-1.1844400777820145
1.5737201672192889
1.3586051472721554
0.49347479342018985
-0.4012156887960484
-0.6637637645244626
1.6317364542985593
0.7881904192230182
-0.7275829170751207
0.5569666663938315
1.1514061600613097
-1.8554124867590225
-0.6201729434259351
-0.6544312699870647
0.35775228040819534
0.5517724436761239
0.07813440202051662
-0.5358622780834291
-0.7420288459638361
0.5943296481505066
0.8380082343046544
0.4891337638866019
-2.202564397590189
0.04790204241758673
0.23156234301876225
-0.7544570394467345
-0.36584717613492845
-0.8283137109145812
1.9652470521359886
0.7985151438432424
0.1836399630207342
-1.2045689091806433
0.6131498042140094
1.498532991751264
-0.16156438578064558
0.058254396402856845
0.0766647745587378
0.4288514356527697
-0.4427155203259971
-0.9604694570633565
0.11763144773897921
-0.9401530629117578
-0.5007049860762484
0.897831536606512
0.7625706362087847
0.6091363767915091
-0.6480331664872437
1.2722422845488042
-0.23874345394104632
0.3388535880408975
-0.683650563243325
0.596579136084672
1.6144260870170841
1.2625210696058888
-1.9233207352882236
-0.5532217502927079
0.14021373387611044
1.1563567549077962
0.860585601573783
0.4899196970888899
-0.15129497392395574
-0.371475825440853
-1.076602839241253
0.9224684377349291
-1.0094192724900863
1.3109361300521867
0.5096485101067109
-0.6298799464667167
2.8634763726492873
0.10763105175632148
0.6373087781174569
0.8287927925971822
-1.143521208692329
-1.348291888585124
0.4835570273221819
1.1044785618712465
1.021340575439407
0.48404371302292387
1.066372863213819
1.0741753885090852
-0.47932436603384915
-0.3181405312390474
-0.6205866522546545
1.3255895539719869
0.9651737382302066
0.8442307859483925
1.259157597759328
-1.3791436923416973
-2.4560239709972556
-1.4283441671764303
-1.588123928742787
-0.25280019529752573
0.2568724303015112
0.07868056622148044
0.07743512066441806
-0.5786327109738201
-1.0273398884708844
-1.7025434458628121
-0.05723816570388525
-0.00269205380545691
-1.6718328928274273
0.947930112066542
-0.8591935054057934
0.7217438546892917
-1.4233402696313537
-1.8359408528018721
0.6353332287381382
-0.7818032576494529
1.002311509431318
-1.1362594850890912
0.32683104685863074
-1.7814443887972402
0.02138645690672374
-0.19144669361489386
-0.15397640635819096
-0.8055953356170623
0.20322453189446218
0.48002606904838807
-1.0729958071096897
1.382422666050033
0.49317677924091824
1.318959484633281
-0.2634666174590919
-1.835801192266955
0.1471337855162427
0.3430240239704733
0.5386958272167892
2.07901130520682
1.240203638383696
-1.3243161256268308
-0.37592295684320465
2.113292903952879
-1.703312155302269
-0.1263412257766524
1.4418330885573583
-0.7598408441171693
0.925576266731362
-0.6937142409679131
-0.4526036412376769
0.9771738033256189
-0.0043120256716733096
0.8426198055214038
2.6770425495589762
-1.016112640572113
1.6409931007453902
-0.24234735496558543
0.08675935551181908
1.5682015286230868
0.46629200157441714
1.105167910659657
-0.06361731869588015
-0.07456634202097003
-1.125018845890582
-1.4629715646385728
-0.3657025272182201
1.1368364031660936
0.5443101044466583
0.38396347254629704
0.5574832590406242
0.04425853117032786
0.48019465735206224
0.7781612186210548
-0.5919570845816458
0.9667823631643204
0.5438465260177539
-1.718835544813727
-1.6878058650842107
1.1618637548524406
1.0623036982170881
0.1123186145743177
0.21605725581006016
-0.648949288240818
-0.9807072964174531
0.13427927722460056
1.3073221020043733
-0.07793956442118419
0.47625735766520993
0.13477179701014297
-0.852329523664604
-0.3409809093307756
-1.46196857445784
0.27372476604201645
-0.5371334854129269
-1.161830536705036
1.6261541228818472
1.937895580038959
-1.3361027317221152
1.9393858490448452
-0.19865017949784797
0.5365330843958781
-0.002233421166601179
-1.6954641508624462
-1.0204148370047488
0.21553033074601485
-2.0861963980639624
-0.8677894774559246
-0.5312178852777123
0.8900364270585766
-1.4394145573594799
0.5282575418512055
1.3613089034580024
-0.6811315186764703
-0.4122668683764647
-0.425128530729892
-0.9035344399123705
-1.1461420518255514
-0.12520332078911806
1.6303929641764958
-0.14092578616746726
-1.4859401055264798
0.9184414597522959
0.30582338196375564
1.505369833142551
-0.23018516220831173
-0.020390854140524252
0.17441639926965505
0.21367062136342715
1.9141691993771508
-1.1715111223245178
0.7860274592970109
2.047054192153244
1.5578750557593288
-0.7109869287648858
0.5166565188862802
-1.524791728555727
-0.9121955770926599
-2.824742914682614
-0.3687158986476202
-0.733306595916583
2.129882837259576
0.5084699160662739
-1.266314336600648
0.8233910002513384
-0.5970864893417808
0.704814917027153
-0.822281605439481
0.08101012328537703
-0.5525976377135685
-0.5835719992918176
-0.3376156880912552
1.1620946316776446
-1.018080817044087
0.17710598705802866
0.37446033732622985
0.5013804444226935
-0.37075274231292216
1.0763971241341002
1.293773816853013
-0.891783794181074
0.0818287848394624
-2.20859218584887
2.189459013195057
0.7263831827863483
1.005834309323349
-0.4604939196809317
-2.8483514526917357
0.8633846173004752
0.7779445532737699
0.7219814987817108
0.06295387722100002
1.048841528599082
1.7127600412889747
-1.2293676951343193
-0.5689920501566438
0.8334267593930178
0.3401774874850934
-0.12377993394555219
0.18151667059088444
0.7668534859882138
0.7150170456285242
0.66610050863839
0.25645473714931394
2.2389369412664495
1.585938151860073
0.11846696842806728
0.7749692478470432
-0.2755773332376996
0.21523678228636725
0.22298906570208957
-0.5542222191381916
2.094331153652713
-0.17171806304432677
-0.11362940969133371
1.6486268430506135
-0.27745615324240674
0.17723810745785862
0.3176706632192965
-0.8750051400430227
-0.14076552348582988
-0.7840022100127098
0.2976591544283161
0.2607124276715008
0.34178247626700636
-0.3909502263306842
0.4900011555491955
-0.22354469601636898
-1.8452723464645384
0.31331013839610955
0.032665282403447495
-0.003969308832246294
-1.2866353486845987
-1.2492018196892565
1.5167691037784259
0.4840199478564826
-0.34996494440232506
-0.013538370024750675
-0.1898193857836026
-0.14264203898258812
-0.4765794673676795
1.107359073932089
-0.44742298323946006
-1.4599333444970934
2.128068395309247
-0.080332913772148
1.7931652847876811
-0.7057414134618041
-1.6059907901985362
-2.0633193104844016
-0.006115446811253364
-2.5116661283871227
0.5316669301207261
-1.0975112051382319
1.151998605103409
-0.094118507390688
-1.1887856779828274
1.1238598869711214
-0.30226900030199977
0.5170514943052407
-2.107546026656782
0.5791722022757338
0.7689737722786986
-1.8959890154371484
-0.20968610884949565
-0.30799310321965057
0.3576376863326678
0.5497624779878056
-1.364768553649918
0.47463406623992493
-2.7119931576821386
-2.2991452908640113
-1.3212520450202938
-0.36810500632178794
-0.4841254838658173
0.2593388106056862
-2.323569506590557
0.35441110246538704
-1.7246145663423906
-1.1704471638033305
1.3177316738103486
0.5457128649339972
-0.9582206552092352
-0.21032277580169487
0.9119494285441867
0.1868854836144992
0.6808819235974969
-0.11520688927610279
0.21633493522272612
0.41534881554237696
-0.5946046386868137
0.05054160383977868
-0.12319551151357637
0.14291567916371928
-2.2011437955135564
1.6948789037272207
0.42136484129014323
-0.3856436754290619
1.768839449354533
-1.3692924360918264
-0.9626890740881342
-0.34386985175206924
-0.3902161952532679
0.19109122318874422
2.239947380854866
-0.29319865913051096
0.3010332399037466
-0.5763436425059227
-2.791545229833562
-0.8885147979997936
0.4868629184819068
1.4569576928380363
-0.2219336348661958
-0.9077819148514522
-0.17643621023003428
1.543443057717891
0.6636115759426785
1.6285263560095629
0.4018564639860917
-0.2780266713050727
-0.33674745387300453
0.4030553268994792
1.0213367210803874
0.6259546346223227
-0.356536803958168
1.1753567788621653
0.8138068098667868
0.3967582155139376
0.6752232105709037
-0.26168548118505536
0.19425706275435098
0.4811172931268053
-0.6132602933011192
0.6595324977924422
0.9576571245947152
-0.5007548948766154
0.5028634340299769
-1.3986579181926329
-0.8926483891709973
1.4634009788412363
-0.9504853460486685
-0.16029897381948036
-0.5562969425044524
-0.04208636336092304
-0.5754718247301834
-0.2699125126315468
-0.10961730733610536
-0.04791500379769576
-0.6609028608152678
0.2547910007160591
-0.33872955338370336
-0.23578898177555163
-0.9488190019081638
-1.2255326946756053
0.64585398301557
-1.1395066980261386
-0.20524861434068536
-1.5402416711059028
-0.3174064335085396
-0.27901993748072285
-1.4368458559632267
-0.368175756334712
1.8693171932751187
1.4160521148941871
3.077457018236939
-0.6884458550224968
0.543475559687298
0.06417778499176181
1.0693345964400034
1.4558073474984587
-0.6655172102093438
-1.8376639795474545
1.9221160998849995
-0.35364070113505053
-0.3348874899394397
-0.8601975987929744
-0.6399498302150295
-0.04923083765731609
0.8526988557441336
0.5325893537783857
0.21226356935309787
-0.23774233485204313
1.1069391498305234
1.4655400246641161
-1.0118206084567827
-1.1051534343675706
0.5620298115192708
1.3064801370761652
-0.31277218842028554
0.7376392546699064
-0.2703276611796464
0.258587828244302
-0.16736227272795198
0.8492767079111042
0.5713992740094149
-0.06531568199494463
-0.033128769053021576
-0.34321531357564766
-1.7170185104683207
1.761668038386595
-1.7853302285955623
0.5020578186222804
-0.862574017160553
-1.1051160144899104
-0.8424041570635654
-0.5867249594050141
1.7264912154524306
-1.3019529098369726
-0.4953762835094789
-1.6145586148953988
-0.9056577524705082
0.6203154713212355
-0.57528625446526
-1.0699961862914076
0.7436183767250361
-0.41910249832164054
-0.29596610542454127
-0.03408681108247475
2.2445160625881937
-1.0177896972461822
-0.6590429906936857
-0.30084650560198345
-0.018965377553033343
-0.7135413495580077
1.1707340757815912
0.15478725653405861
0.36430679915152037
-0.7126163336033663
0.7214569414627608
0.36072614145117343
1.4836787034212753
-0.9759026819611999
-0.2882407393565813
1.8538430128398549
-0.9618441366551423
0.5897760124737161
-0.4283883904011197
1.229587611814853
-1.1379994014565338
-0.718875935055354
-0.38277817501689876
0.8277993902102736
0.10481403996933857
0.02735257759280861
1.5527309521797834
-0.459644720027683
0.8166104785362547
1.172049703602579
-0.04336902741492467
0.6196640747917244
0.2467539067376493
-1.2986513245585782
1.6243633375774618
1.033111793303355
-0.35398002070818
0.8686278319034793
1.4262049481999786
1.4865940295154714
1.0941749310168833
0.4800507856309318
0.2641505397953995
-0.9498967567249537
-1.0570892931242155
0.5303312466593174
-1.741025198811533
-0.09397580657739474
2.302619527453774
0.3448377971723327
0.7521685185960826
1.847974782056304
-0.5321511006911882
-0.8762640651564809
0.2393753037092538
0.8054833599764385
0.3341292296111521
1.686120421431392
0.27584810344252403
1.9769226988788313
0.2989079773121819
-1.218815532559254
-0.26671799333568513
-1.131211431532825
-1.7554318496793548
0.07073669636431076
1.0804895469395872
-0.9443560963936952
0.9391872031614709
-0.7520423129141495
0.7666783849222498
-1.0021972073692644
-2.350680194879392
0.16758775341972124
0.05032574812469449
-1.013020488405171
-0.7982377223241298
-0.09526568334309765
-0.5512090652536393
-0.4464291891608575
0.26019288974777527
-0.008802975846392311
0.66940071971443
0.0409850128793353
-1.2271569547348335
1.0453502528519343
-0.3712914678864087
-2.0438304197501886
0.2873578237639367
-0.15123791128487704
-0.36547851287671024
-0.8630464865655895
-1.3383145672467658
0.13315240713574752
0.9406120559098889
-0.4318435307179989
0.33838097001961326
-0.19158369753306873
-1.2567003192160973
0.45443883502154886
-0.4727039971189037
0.21610324205797427
1.5267647053916376
1.2423564263446907
0.009513628044496346
0.44182357104104497
-0.513530932294034
1.1468598845033162
0.5948955941301152
0.6792059463624127
-0.6567966650514341
0.27145827427523483
0.894273757872505
-0.41408405846271046
-0.2573673202572871
0.41129152533186325
-0.15914283469670948
0.6081679604165872
-2.393512972199483
-0.48273101006572927
-2.184964766965373
0.1389293721326467
1.2468494045384233
-1.8169904933171421
-0.49215280679667567
-0.2542832146016148
0.6394692097343824
0.584912238868256
-0.3983630693005366
-0.39357790713177465
0.038806183578505515
0.37485837311187525
-1.952198409575081
1.2209983927746515
1.1980226973759476
1.0885559398893154
1.2659743464059656
1.5414585575745776
-0.38058182865900153
0.5119616392573145
0.7000834371356954
-0.7070289125109436
-0.19618135736689576
1.0820082908874307
-0.00991646284225532
-0.02781027653643127
0.03599199039634669
-0.7951185676410145
-0.42358247780076813
-0.10901434519281376
-0.44592607491792385
-0.18274792003517099
-0.4526707832109708
-1.1277358383553866
-0.5114696956068655
-0.8984700118417349
0.09452152958838203
-0.8279809647550826
1.1412742226163501
-0.14491324291388538
1.3170178125488947
-0.14308076143068485
-0.2359673507868411
0.15895225891590767
0.02791450357215555
0.6556963717547712
0.9690003486978077
-0.48999608420482565
-1.2532068956449771
0.36594637669912244
2.6450156328438723
1.8649459030026097
0.14560104032938798
-0.9061574497604108
0.383954407289253
-0.4193141654265927
0.7293362401438271
0.42949207156542313
-1.3554694579346396
-0.5444721569751325
-1.4540240677772716
2.410586142209368
-1.4024129143356976
-0.8093312685461006
0.5446039576378903
0.0060179924968001295
0.36669667129351263
-0.07624276228767794
0.6685978837413631
-1.0832040970931969
3.3566680899245687
-0.46710475930223194
0.19827823131418373
0.3780916909646252
1.8143384278212682
-0.8802950093750952
2.363551989598802
-0.1459669749820521
-0.9615896317938764
0.47319516341164547
0.2240527028073627
0.4662315145192344
0.22552687929901966
-1.0371043548141348
0.2309964924383437
1.96646937760642
0.4730676966846389
0.40137576522417395
-0.580063665838606
1.0068231556299623
-0.6865532885992116
2.102286745155969
-0.43303942714422544
0.9908420613195884
0.2147327155473893
0.0428960406677346
-1.2744001944542913
0.14754917511456966
-0.22979517059328974
0.6033949208428079
-0.3475685804868804
-0.20785170043463233
0.1134219923603718
-0.23442045017723073
0.23323144903658083
1.659396683106
-0.7849734530576408
-0.8694341283925916
1.7137774776009493
0.7344075150296788
-0.8669702032810542
0.12298224784999917
-0.011468456979996466
-0.5636809631309009
-0.3530923170918045
0.8813010783254001
-0.26239347968115573
0.16001598517232984
0.7029832962258528
-1.0255828115680912
0.9533374774524985
-0.17364565008307023
0.20964928189002024
-0.6414024522215259
0.6391753284470632
0.3010633574054813
0.2283760643458001
1.1614295017054563
-0.5113923022373092
-0.5771313322160698
0.5268303191874932
0.5402997440176044
-0.6620953730773833
-0.020331699843109324
0.5581364611254734
-0.7522839502649125
-0.9451637345164415
0.5481476853187583
-0.31210821507047315
1.0990508179427307
-0.010402444471866057
-1.095150470324895
-0.2886498974584348
1.83975030035097
-1.010436531272482
-0.001639252220249698
0.30961579082582874
-0.18379524164659844
2.2188072540090618
0.27580289496377286
0.4313986756718662
-0.21670269042431858
-0.37733143700996286
-0.7709374953512217
-2.0010499743670915
-0.6052667723369299
0.7685078740408816
-1.7325636647587428
0.8592363226147568
-0.758321730072216
2.090972341268168
0.7736134755206275
-0.5450527396846069
0.33493779839756954
-1.7585815568688523
-0.02963099589170782
0.5911894680949605
1.770309854977705
0.4581156431690095
-0.15370319373465127
0.7593118925344438
-1.2394521132617702
0.7873344656954238
-0.31550786586881946
-0.1310958777817776
1.1405045420737012
-0.9899099399324058
-0.10551060179744612
-1.546412484642093
0.9683220583530664
0.057202049141025633
1.1506187486608739
-1.3787140372466038
0.7411751715641872
-0.5531199289233972
0.4035414204329338
-0.16606229428067543
1.1348143405233004
0.9188312817625094
-0.0039894806626118865
1.4316101461834894
-0.9177182532029143
1.1305760944796952
-0.8825803137938716
2.1474838388073954
-1.4285422783624466
0.06171005019447153
-0.11823743904106897
-2.3353886070652528
0.41760221855276114
-0.11095431848167796
0.43392268999723993
-0.5646705694096159
-1.1936495358275472
-0.7732193391218978
-0.14745689967303985
-0.5012840840518664
-1.578701544676139
1.9788096210585293
0.6627956213838908
-0.966564165332095
0.32528285783643884
1.3629914425114187
0.3209672445971706
-0.5934887210611958
0.4170820655106038
-1.5526701122457112
-1.6681606373777276
1.0414744228444683
0.7206761261789189
1.683328014321456
-1.4469579534165364
-0.4492727710182369
1.0856158664229703
-0.12602306639010888
0.2259368205290676
0.7078124372280632
0.3047848645630881
-1.4489301400155203
1.0466884297982757
-1.781452946034
0.006733316230907259
2.110019008578449
-1.1609908820512957
0.31387175783531646
0.4311315772558037
1.438857954690279
1.3826417951127048
1.0976137175468768
-0.6514969274331903
0.6786660656011904
0.2695213253801826
-1.438795935355381
0.24150911327685776
-0.8822663669075416
0.0017485172947175013
-0.3082669553267931
0.9366325711710509
2.393530304665633
-0.4304601890971664
-0.7031156831624108
-0.8837804542094467
0.42604530873480245
-0.8358612499954693
1.7526815613017572
0.6411179912516916
0.9272087882982369
0.37139633197511007
0.6909336085737555
-0.23595473205463854
1.2029520373262812
-0.7661625058205273
-0.5919067948325317
1.2536684932324165
-2.4030410759103726
0.1590419169310183
-0.33950283013792854
1.0385946995242785
0.2720270934084584
-0.6292226931061499
-0.1277191728684175
0.8742929719980115
-0.3266192162457352
0.9016659232225444
0.5961402283700261
0.023740359814451443
1.055771988148765
-0.725548220720588
1.126856866299575
0.26594867699393265
-0.26512513104840396
-0.42698277517877586
-0.9392495176633179
-0.8740603302175376
-0.7143911785839023
-1.4885121101968555
-1.7939824905494435
-0.8206599735003417
0.5339117077602356
0.899349198442465
0.11106525041421716
-0.42566364614829233
0.27251977983669257
-1.5715994796468271
0.3304622103913972
2.486633390008737
0.41059615549371153
-0.11462626359019902
1.1729543589509526
0.17993845238180803
1.1139012058189819
-1.8248611668697525
-0.6440380571033337
0.2514886610541781
-0.7795936970205284
0.32850980659015383
0.43040103530143
1.2180463468953553
0.516499615558163
-1.4316723373829328
0.016877467228511717
-1.270390622556306
-0.6080578932475895
-1.0614540811772064
-0.4351254507758208
0.5860992410052943
0.3535584844017695
-1.7045347819919179
-0.5126719280347287
-0.5668648144444229
-1.5174234801234519
2.447717872337804
-0.3306484499724676
0.06137208132104067
1.6435004436373435
0.20725327719269737
0.7740986512201325
-1.1596823375111007
0.5397683250447781
-1.1618943424480312
0.027790518135601548
-0.3218800415109027
0.1730940225523401
2.2116336398775087
-0.41966686855544916
-1.5168268355860577
0.16116994411981497
-0.6145640490473923
0.201798039855145
0.6904797118201151
-0.5920049779589547
-0.01068320643553475
-1.0948916283851349
-0.5278628801705457
0.48166790002838866
0.5499616461883788
1.345362979259592
0.7608159144258978
1.708586611230646
-0.3498641196901108
-0.8982075746017173
-0.24185453320356065
0.27040181856493084
1.7708491670644855
1.4367428745324817
-0.4954017321516532
0.5110929916421112
0.3561771878555918
-0.1864748896931276
1.6267988266138342
1.7353606652618778
-0.1242737436402201
1.6653985356311554
-1.9124278733239315
-0.9740645799059562
1.9542516107671912
-0.07104586437096984
0.09210581410183788
0.4459715102278771
-0.04036205643754233
0.24999360636486043
1.3462092857047865
0.09709964976495783
-0.530066950574625
-1.9611325319605237
-0.5797327827186821
0.3065992206959919
0.31859188208419387
-0.9326183969192657
-1.2007020093591363
0.15578641842165042
-0.593163855081778
0.1895572088997051
-0.8380230922841182
0.753563005576799
0.8212288102629788
1.1357958470515974
-1.433541924782171
0.06597607212799601
-1.020952920975632
0.8802179635176967
0.3430050444850956
-0.5524816408693831
-0.22286386281034767
2.0735510212355583
0.548049935442878
-1.5091848130058652
0.4590950920234469
1.061265512036898
0.04597517219178652
-0.4965865241758714
-0.3984702837695577
1.8286223629801546
0.24466568822716295
-0.145927238934874
-0.23597607370561055
-0.47126746075849474
-0.5232768632637923
-0.12111772093988554
-1.1128474538608213
0.1678842579750852
-0.44237250898770714
0.7083295933026653
-0.516992027370003
-2.2993383033436356
-1.4268098620193408
0.19674755076764142
-0.35143976058746307
-0.8194789584036165
-0.5776916886032495
0.6661148020687085
-1.7019855543065867
-0.6367280731137738
-0.5483108411359816
1.8660337415220183
0.06915132802380392
0.33529571246146916
-0.548524098775177
0.6448462243098275
0.33318224102709487
1.484735076473967
0.9624106901816836
-2.0647152050644304
0.5525194923086647
0.4358634903237375
-1.1490278620761256
1.382876675913235
0.8898111334426334
0.5988410246103879
0.8230826115616401
1.5801162750036148
-0.4682507270892476
-1.4316115793048112
-0.6555883631859046
-0.8112100108857949
-1.6489606498958493
0.13540115320337695
1.8149409662251186
-0.764012697465541
-0.4569585644726609
0.5735345547938431
-0.057911658515350364
0.5834617643000054
-0.06515386182091203
0.5233423038928932
0.37657681512433494
0.5301005354797818
-0.49866465430217605
0.4528126845543022
-0.5407347554966696
-0.7659009019166114
-0.8624608651362273
0.6930957531393719
0.4909182330054627
0.8013552019830927
0.5890298934978891
0.3398932810278219
0.3914017212750803
-2.5065416866815666
-0.02035508203271239
0.26047841176075204
-0.31291537538349024
0.9158000859139687
0.08980012434673791
-0.5761404253465734
0.5832756570132951
0.7590731061708573
-0.05562802324056886
-0.25377584698954375
-0.190646650499608
0.36956164949359166
0.8588971414631368
-0.9960896123092637
-0.869839548381178
-1.0290765440278693
-0.08030347466167341
-0.7614285724210414
-0.11022451449894938
0.28798863526523405
0.12266649119352128
1.444110710132065
0.7021842230062743
0.4341669103509818
0.9054624553739361
0.5907573209693571
-1.0271913273161306
0.5291992307204564
0.3799311075599444
-1.156315825566852
-0.32651604956784097
0.7311277993585009
-0.008979908834438053
2.8396155252175928
0.12716478165856943
0.15755196428004817
-0.25163570679850916
-0.26411651968840266
0.7456073538908564
0.27699133524644276
-0.7923815719857138
1.8271238404670345
-1.0266133072679884
-1.6142853205337577
-2.2792280319126967
1.753808815007462
-0.4694464523396895
0.3310948487565013
-0.4310101322910271
-1.612524778123846
0.7470652188621317
-0.3690990180267282
-0.8173861919345576
-0.9700578046640836
-0.41131760764707015
0.6366937040562856
0.21794945171860744
0.6036987636950099
-0.5622678798068287
-0.11511944721132586
1.1830672005415601
-1.3453593703894637
-0.543375418143863
-1.3225975670989334
-1.3399368696022471
-0.18935447950219134
0.5509909035034837
1.1535945779786112
0.2819823961247663
-0.4394557580976533
0.21534261143853817
-0.593365103768981
-0.050459078318888774
-0.1331221350553204
-0.6226081290787114
-1.3910162718394323
0.0783262656069575
-1.6755530980383138
0.612686739561657
-2.145609754899338
-2.1762823472145723
1.0668353745415466
-0.526907502569612
-0.27089962829471637
0.03676107761897796
0.816231991924377
-1.780084378849283
1.34792921201071
0.2612443166483103
0.15441567595375932
0.4676047337352811
-1.9827855351884904
0.4010901530798868
0.3597918144860097
-1.2042776442297822
1.7132710122614754
-1.0324053088284972
0.6526907338004942
1.238564168887666
-0.563277022905179
-0.48647229993362906
1.0597126580880563
-0.9637096427700524
1.006671335818228
0.5607391768708069
0.21845608411664397
-0.9417105376209319
2.3583951373829173
0.6067140589513019
0.8946947783272426
1.0268422302099691
-2.490949875969414
0.15201433061002492
-0.5360096041618259
-0.29401638158047766
0.15219757889366303
0.394905137217773
1.3721559167330135
-1.6495019088513025
0.4597702265204701
1.3406674314222022
1.3571683635430716
0.18988347751039336
0.5989569872620373
0.250272776350908
-1.7195271399097505
0.3451158605029661
0.0075436947457411165
-0.8810994083551141
-1.032025767978475
-1.1374779087352034
-0.09081474771945938
0.9165835211559928
0.581273442999704
-0.5869335862827559
-1.1371234140888409
0.5542014410928991
1.3618099462520137
-1.3565050809117052
-1.0240582907169187
-0.13469061116329145
-0.18815394897901577
1.7553534654517071
0.05143640633181383
-0.26271404019379085
-1.5214315975292094
-0.7940774400304345
1.150995794434165
-0.562430095750188
0.8693844394505591
-1.1770178143228427
-0.3125646681714113
0.11608700519310539
-0.5059528338594389
-0.13427116909512535
0.12457122917170198
1.3796388844860394
0.6249935625382985
-0.22361404255889195
0.4533792511840588
-1.9816870170716199
-0.02872741934686209
-0.6441154277173723
0.6274724396014316
0.9479081098650887
-1.685854830611877
-0.6300622086978057
-1.251049537532138
-0.33743734389480345
-0.19354012789958683
-0.8579116469631572
-0.6208316992127534
1.4954754779038244
0.2479640842513116
1.4665548222472118
0.0919984097214943
-1.0323650975349226
-0.8027024155897533
1.1753961074751524
0.8575460302250173
-1.3858811455643782
0.47391277682926336
0.04724994501260536
1.0726658721453504
-0.6845652404111232
2.057995954772804
0.6656360031216728
-0.18410596220909756
-0.16045860767386427
1.1359773326165956
1.362781852634688
-0.5491162338586612
0.8129979223950302
1.7307994601952728
-1.3539452616474295
0.19387133362753445
-0.19582950803088772
0.4646265177048124
0.06712813169728055
-0.06573046182602803
-0.4753681798457616
-0.6784023857408096
1.3386309770672526
-0.9740299688110875
-0.13917706139232894
-0.25918352640242326
0.9519137231969959
0.11208631959004703
0.16370740740033257
1.7338828133124171
0.9835578819872497
-0.6259893325688792
0.292817425206168
0.12562023758393254
0.04863716137917966
-1.2456980336718273
-0.37447915341674615
1.999768584142934
1.6768096574663998
0.9533813142747726
0.03574938360065892
-0.7510691225533159
-1.7374179327465002
0.46954886978253285
-0.6653559386322171
-0.5015742542393472
-0.7093563697042844
0.14823238386061444
0.0022769336818627833
-0.5143440978075979
-0.025490616684117468
0.5910634116407042
-1.4695962367390425
-0.2036827689371806
0.5135602547800246
-1.5595488006938347
0.728078877427738
-0.6904263697580204
-0.2662804426620485
3.036153272240682
-1.0492926677661307
1.7498329822829268
-0.45976556383734707
-0.10457401926952589
-1.2014437366818518
0.6863416917697569
-0.034605861908829826
-0.9250458034685004
0.8081305257031907
0.02471648919843399
0.8086190130808962
0.863224170810408
-0.7265287189539501
-1.0613349306324218
0.4550905537259845
-1.0622116368693382
0.013201981429267266
-1.1174252520690935
-1.1542305034074092
-0.48767477316736496
-0.08902633694208961
0.2757805460928793
-0.6635064279213269
0.9307171532906007
1.435946081072062
0.22799285734099917
-1.2843072442413652
-0.17775247708955386
-0.1169871649164359
1.0695465175520562
0.989338389133417
0.3505512338823676
-0.0414997008140862
1.39575447733439
0.41362370568755114
-0.6629808856088925
-0.24983828180768533
0.074574293582845
0.12352758624448108
-0.9609639607927696
-1.163283688385257
-0.7252355148009355
-1.5560081476516188
-0.6360801224677749
-0.6165458082845386
-1.6169778516131659
-1.7328254709779471
1.529402423862937
3.0409043212720004
0.02465993459597884
-1.0945342289561069
0.3517301003094935
0.801338517652819
0.24666636413428056
-1.1963369966937374
0.5521824310597023
-0.2022531646403082
1.0246168547726977
0.35929584601392345
1.271869136140737
-0.8338915524012668
-1.173508429756862
0.4889580816703168
-1.4894503125548841
0.9840354292705504
-0.9946003416696428
0.22943482993314548
0.18937114207604883
-0.7256677747483486
-0.06656029233970236
0.7950475891619311
0.6530794294980984
1.565312661207268
0.6283124760766196
-0.17676167747816576
-0.16820301381129107
-0.7262089752485008
0.3495351156992527
1.2932716727964841
-0.6838833287412875
0.25390924382739594
0.9285521915368554
2.985395118368864
-0.4902422407589025
1.0306136590787454
0.5200898056608765
-0.6849422843464431
0.0012147218518452623
1.706232430142387
1.273932526641527
1.0479347077357908
-1.5064194706591638
-0.39345245326992595
-1.2233421671946967
-1.3234518882238118
0.7350208553241343
-0.544419929716088
-1.3753539697164963
0.9048368796437329
1.3621098453706573
-0.43744848124738134
-0.3927621987793771
1.806326935464624
0.6532964101532919
0.48370351252289884
-0.050846387618256265
-1.3043118311313864
-0.08012474302258375
0.2082169108982229
0.5355021274677368
1.2253803547506426
1.953117938773912
0.4719120594427092
-0.3217580403615525
0.009969534288878196
-0.976748731782035
-2.4051781253567732
1.1607292045104267
-0.3111231485205313
0.5541410947715806
-1.5963750111984707
-0.4579442910658629
0.8423087862365158
-1.0683605005979928
-0.28417370014028726
0.7497015427771004
-0.4049719441244178
0.3182089201931691
-0.5558152049558573
0.4900494716701385
0.829800081572276
0.33026932440441253
1.0906890540525693
-0.2740646291463392
0.2944644294725465
0.2721997146272251
0.6975358653646783
0.8168551734505316
0.8013616722997403
-0.4786008449986776
0.662078387585736
-0.47378374446429483
-0.302982179405854
0.8794234605035111
-0.17553632846345935
1.8377945829183608
-0.29933372581225387
0.5212559797333983
-1.9845221496271344
-0.7176335784832985
-0.6778096552826851
0.1319453683438811
0.165513194296156
-0.5641406237911074
-0.22108150047731737
-1.7647353898052003
1.5182889295762105
-1.7468679923894372
0.6924111304125828
-0.8554867885824049
1.9289635611049076
-0.5039508155792293
0.24826835663458988
2.3028555206956325
1.4398564877621056
-1.950960667187647
-1.5267139540169945
-0.5332057092075909
-0.4617187815074314
-0.9469899284892187
-0.7145859503875106
-1.4824578854436004
-0.3130449174374611
0.5008300672896807
-1.4882120416767388
-0.01071839065210904
0.5935481961346192
-2.303653645788122
0.390431896054683
0.27656364423519614
-0.7384820708886127
-0.08000166057192987
-0.7880042827067304
0.3995348141577999
0.16624090678109976
-0.15779477085574198
-0.5716311562720066
-1.4605342601324178
0.6257950376423463
-1.0781971845404408
0.7974485514718426
-0.7166717969782448
1.0985907395465708
1.92742261378506
-0.340980111865447
-1.0368564972118843
0.7668914270906195
-0.12593522044638203
-0.06961612684121589
0.07954225619379761
-0.4018779650688841
-0.5939386210395791
-0.8656336940417877
-0.6208500738472413
0.7595229348481033
0.08648166284647188
-0.5162864048033878
1.3541158092015253
-1.0664533855797822
0.1618305570641077
0.6883309553863726
-1.0986922224121671
1.377499660842949
-0.8918747599150043
1.570145590039188
-0.6542095183352374
-0.23047692417664187
-0.3319042277952463
0.012592762783355206
-0.554860885333332
-0.8305106865388252
0.5875460228793896
-0.5442847017508595
1.7944449252235724
-0.7593114528502852
-0.05130148465639901
0.43368705106885497
-2.844263781381364
-0.30029932379453494
-1.4481142546768684
-0.3886813723855453
1.454233163773554
-0.6930485015970872
0.7774019482088265
0.5572696775602368
-1.212119134846143
-2.229965756944296
-0.4147258307185517
0.9309346958430681
0.5298445802825107
0.949265537488938
-0.36791844681903535
-1.2610126233604317
-1.0697006622616212
1.020365477290599
0.34532432145207287
-0.9367971922443343
0.6449515717393618
0.027828530730084414
0.7152693631407998
-0.1609701846726224
-0.9571711044798197
1.2490477914754987
0.71863313973595
-0.8617284657930341
0.8590494063268062
0.6880424848177944
-0.6228638621341547
0.09855856313790301
0.8567954194999474
1.6324081596620448
-1.6788348954663828
-0.8043586500466663
-1.6507360693243298
0.20522541605868036
-0.3799857360257781
0.37569262209020754
-0.03659657286306207
-0.8409731561258788
-0.6275058018974081
-0.6001461699228435
0.02352495696097433
-0.5867613625660663
-0.8900737452809566
0.7547963784826837
0.7569389403713614
0.24539795947312376
-0.013271115614338679
1.3001146420910281
0.6188290209977164
2.2480103656361377
1.0067410083134098
1.0882627459877603
-0.3534337199871036
0.2532571921658738
0.21784431686900121
-0.12472285498357155
-0.24913682642289134
0.194571021232167
1.5002430913134173
0.51821681477537
-0.7168881049063407
1.1892063847806102
0.14543140102596464
-0.7235930351693053
-2.0877533242417425
0.3147974089014514
-1.47714039049958
-0.6950989801146383
0.943139191782628
0.27938517895121284
0.030371665200912137
1.8312795944681333
-0.8206029954861463
-0.643159673845267
0.06402532360696306
-0.14320737913026002
-0.47823446389436425
-0.08119041739873525
-1.289893631571963
0.31207690015803885
-0.43512900226205553
1.0179838803602095
0.3180171366549186
0.17992261939941745
0.6397216574277333
1.0543225661284576
2.284060734805041
0.32322457648303954
-0.7164212172712805
-1.3492212929451703
1.2430354386857145
0.4562139780981151
0.6750499370395027
0.13232191912570554
0.5552758537440151
-0.13584161019776778
-0.11961062835572837
0.21320228027048246
0.9905761456470098
-0.7082523470634312
-0.29496813539393774
-1.0638353945979055
1.2218898322673684
-2.421158962941982
-0.4750291130954232
0.6662364568449564
-1.4356266578372447
-0.44126394777775
-0.9130211235586468
1.362187667798856
0.5362012604385029
-0.39747067962277105
2.203860844884132
1.6242707326730614
0.11757186975992158
-1.861543958286115
0.3736664319676489
1.928640400777624
1.1837231072295844
0.8506890679923316
-1.1844116057815839
-0.4131179783921911
0.7460035987978056
-1.6481634749274827
-0.052814915946507855
0.3068572710921261
0.7291731988236142
-0.9110550259837792
0.9889698849485303
-0.9977653368881266
0.24738750942192328
0.08259628007891523
-1.0988791676831222
-0.2254898347304074
0.08217356018591092
-1.1430844920965446
0.621668337603957
-0.9493921240870739
0.6620510069416519
-0.23993785690705038
0.29045842349097273
-1.2786866008430322
0.9192583950012833
0.0639578876004847
-0.5410396360241242
0.38965369684986
-0.44808922975115223
-0.5351600555405801
1.308813704336803
-0.48644111652423416
-0.5075557952518996
-0.12019488183801823
-0.10759301672916875
-0.16444153517660912
1.1688141442640683
-0.08673897929830487
0.8258211602389183
-0.602484061306679
2.390850224898246
-0.7844584943197882
1.0356950071489133
0.24480558550963172
-0.4301542993457216
-0.7462415986603117
-0.12049124483120854
1.557139141928963
-1.4689248530761942
0.5036590026136026
1.349832086713495
0.6153193937320912
-0.9034837166105572
-1.6298205273956505
-1.5826584599434173
1.260649247776346
1.6975805094207213
-0.1588376714608371
0.1552151253943291
-0.6981810608973132
0.8299207051371935
2.3389796245631604
-1.0731470080640795
0.7740074580038806
-0.4575623565509903
0.09666687287002469
0.09708684904012131
-0.25419481848649605
0.34889495995923037
1.8255519905397752
-0.22833949208134371
-1.1919044370697887
0.0770236822522654
-1.3404144265203628
0.20716091737215966
0.5513752682306028
-1.6237735649120062
-0.7089542524288827
1.8036181111509915
-0.16412270045178579
0.13575461654874244
-0.7560121188780177
2.3357137498086673
-0.06304087630885624
0.8987875328717994
1.4675535676784448
-0.39046856967960186
0.8223487417119093
0.3862974213418172
-0.1656728418935071
0.11953410093578858
0.44095774780039665
0.2468859688523623
-1.064017761342334
-0.27001403291959597
1.0002254191893343
0.72252719444117
-0.7922462027091057
-0.6558348368767745
-1.2645304691858794
0.7199464407259915
0.0072790957598206215
-1.7740679422648784
0.35805755587626115
-2.83976099186067
-1.0373773966117237
0.12134204827437726
-0.2762441982599369
-0.6761621228335117
0.30323076944932803
-1.2176462575809393
-2.5240981963371345
-0.22550337513239432
-1.0205383001439254
-1.2239556193658012
1.2791674801962682
0.7893668559570157
1.7475755690971138
0.6492818269659333
-0.1409891845462777
-1.0842248775391534
0.054143081230345926
0.6819547681096741
-0.5667971686189884
0.3724645096228762
-1.373815626451597
0.6900683371645705
0.6437394875999665
1.37847101359836
-0.8402573672999608
0.7483530261522555
-0.6034327634309153
0.24744732339327372
1.1158602712679515
-1.2209889310414273
-1.3199546566420572
-0.4153823690183676
-0.8084036201766746
-1.3727491008062562
-0.9979405907807045
0.4001206299592169
0.8138897348701559
-0.21591146862086963
-0.9518602238394843
0.04992133650385469
0.7422143925407615
1.2548065898027545
0.6594976055437247
0.2940500098653326
0.898331638635537
0.2457037346592535
1.5362023674466176
0.8920874986716034
0.18905805774245726
0.9506228391288571
-1.0668036093339295
-2.2698759236595767
0.3673585263141549
-2.8938923160739822
1.0152253008227294
0.26838448165046985
-1.2530737450679243
0.9146508541851289
2.0980103109535952
-1.7762142343381309
0.49941154779666536
0.08059015655004002
-1.4576694830767978
-1.0237104520058011
1.023449093988721
-0.318600894873473
-0.35085421376521825
0.20400005600859186
0.9531461498445837
-1.4961934711044687
-0.6267675558356416
0.16256148225692843
1.549001927479602
0.90764291170273
-0.5534018430831512
-0.06195513867730046
0.8787143473780703
-0.003405697408208922
1.6572931499560968
0.7375373345588886
1.4416767065829488
0.024083131199692406
1.3565542247011804
0.6936957904763897
0.07664699222384247
0.022157046865071802
0.28297805278341914
-1.5421220511003473
-2.8747382658799245
-1.244115602129747
-0.15575083486834915
-0.6984870058826292
-0.07079277231822546
-0.6700313911135404
-0.06198348072560029
-0.054487255295931875
0.6112410426267724
0.2850792544780859
-0.302287993079656
1.4455913819506043
-1.1552751716234169
-0.26975899021782557
0.4851582858710897
-0.6399550944876149
-1.6431286536411356
-0.7297560471692813
1.4602045537225579
-0.29703397017414324
2.5591614938134257
0.49329056705822283
0.9957197873246633
-2.066373675813663
-1.7734258753575443
-0.22439568274520583
-0.7293776952503918
0.2726749006955818
0.8987816863080423
-0.8048577927829643
2.084545428067802
0.36234392691658807
1.0629587319735925
-1.4332872165773884
-2.285195639473362
0.6594191705456713
-1.1726074539561233
0.8366640965176537
1.162278376788212
0.012541055763293995
-0.6123085422117197
0.7718861371500096
-0.15895777391769916
0.089191674345506
0.8264858333623387
-0.7664536719174677
-0.10287620768669607
-0.7171545221872515
0.17694835566682715
1.7662072798091066
1.640523925421389
1.824468314455159
0.8331211832752216
-0.11143463575764527
0.3714569271827027
0.8405566472545996
-0.78450647700517
1.4455429009638037
0.002236032652058455
-0.9756823795180101
1.1301930114777148
0.41423306321362763
-0.3872011710014838
1.7206107754297568
0.03694670875366103
0.26791762730035273
0.732883321244444
-0.4670020031783388
0.6004231805580891
0.9923580613324554
0.6029172920588229
-0.2975605587416966
-0.1857899966601944
2.379899069443961
-1.076741048623603
-1.2045016233552308
-1.7088727077230539
2.1216451867814157
-0.14793029392161336
-0.7666993689679568
0.5714300178476281
-0.7596532531235
1.587665044382379
-0.20644047160438392
-0.14264808085004813
-0.20144780614345886
-0.9525013899186054
-1.1428243066065977
-1.6330409289706647
-1.6883163516866417
1.4893496355563751
-0.7872755567860249
-0.774651769547658
2.260613399731272
1.3040708392311597
0.8591148442854348
-1.0477949795186599
0.09606953974554715
-2.061050170952489
0.2644906937731688
0.14003600085194903
0.012297346923381304
-0.5444955530621541
0.18558603472017568
-0.42304038701415775
0.3099840925471595
1.2149952009753173
-0.08714313981465482
0.2961352610762384
1.1037646982187357
0.331781341339866
1.5527597664854793
0.6643515788002514
1.4856732471579772
0.03691195090200452
-1.3971749405747262
-1.05805261602917
-0.536583923558796
-0.9219148754472393
-1.3015251658874991
0.8257948040007534
0.3369741978762264
1.3158461390299998
3.1632798953828223
0.11689090203901079
-0.008639670268866289
-1.1510567753521448
0.1468182459572586
-0.07267244500791417
-0.3922641826036758
-1.3387013678351238
2.093781930573759
0.3590358434050369
-0.24340332775214263
1.0800150689640657
1.1879487847177124
0.003704094636839247
0.33242239140719454
0.5806149059101035
0.6404188456574244
-0.6400513667217644
2.696002096168328
0.9928783305852015
1.353421172582133
0.45016860964731464
-0.6786321340227888
0.24784952308918054
-0.5056133335543268
-2.473551539289685
-0.6375886663524087
1.2938032746591854
-0.2182279537913109
-1.7101152940045259
0.3711841487711349
1.167176459842398
0.4856523869878515
-1.657363959313614
0.1668192226023132
0.47823579135045957
-0.7045332543625772
-0.16744056964584444
0.22109191493999206
-0.3982581077482777
-0.5354275295463541
-1.2560944382101487
0.037188766964921495
0.5341604856637886
-0.622028378222457
0.5488230527604621
0.2977713722217061
-1.1498369514541145
3.3484284361131427
-1.108882314763328
1.37496745449919
-1.0784116989870944
0.5207175692792666
1.345306803664773
0.6307742877953704
0.862665393583823
-0.05561251695991692
-1.0354397311910113
-0.822191889270585
-1.1399038244421147
0.45320783549529386
0.1269813337312202
-0.2335348366761926
0.6324904263574048
0.7900040642328924
-0.13382596296422328
-0.9516235002917625
0.25090917819169734
-0.5440670628804886
-0.822153412151441
-1.5151841021562964
0.764844448459684
1.0679129521388613
0.38221128290759593
0.6622917167853482
-0.4472815505252818
0.20813417029828235
1.6073310910484977
1.1975082722819568
0.8879408900777441
1.0922700453555445
0.9732890576447258
-0.06163925356266498
-1.2205336051846563
0.419181255195767
0.6646489699968625
-0.0398650918112858
0.22845807394813364
0.6435845451432047
-0.2580045395758829
1.7943942322683966
0.05769975051917882
-1.0762156471898021
-0.8791721433697575
-1.3019161751587227
-0.02026465144726959
-1.0993241905230835
-0.30377761684636745
1.8005635853857336
0.8144570695645692
-0.2927761280541746
2.653261923012559
1.3856405605449875
1.3873141005531655
0.010179242955589064
0.39922650233453594
0.6752764655948881
-0.4198475101125459
-0.18243135266110838
-0.43144709460115893
-1.226008097025778
-2.240895969130753
0.12990188194307067
0.16453081064143252
1.0481652756405302
0.7706755435285502
2.0633951266553643
-0.7982090941255418
0.4814385887984974
0.661046678322263
0.7825006758476096
-0.5342092988680985
0.1322757499211465
0.8025029528550927
-0.2751055688052644
1.19519691640959
1.1544391408316141
-2.2665596762527627
-0.9455135998829118
-1.285635912936113
0.897833414630563
0.47103965585760516
1.3476497662342086
0.08215433458099923
0.0054823308023971154
0.05872695371574753
-1.2929747952311756
-0.13277435960516254
-0.7048562539149051
-0.19446978510515608
-0.12334365014166945
0.19530740647952616
0.40901051601651023
1.2751567584041665
0.5404695061522302
-1.2037874432249773
-0.6481830710399116
1.4524384656881961
-1.7816635568020556
1.435687685132761
0.5151921956747332
1.5535691551482542
-1.5774928151819063
-0.8651266780729063
-2.116911722766202
-0.19530310443917398
-0.2724200664860579
0.3000548529834228
0.10721961455524652
0.025647881301380866
1.3451861242069787
-0.44786274014924127
1.1421604513922705
-1.8380977178265487
-0.9905580041011212
1.4894389871954001
-0.09661210651568514
1.348560525513117
-0.4811434410610006
0.8313153687006732
1.0754487673698327
-0.15945584039979477
0.7360486711691681
0.29635809790648604
0.5460177491179551
0.1471392462338266
0.11458589044910308
0.43179692272212716
-0.5145171066769293
-1.163224707877606
-0.008755812617386652
0.3810124237125461
1.3423766228207563
1.679034779363583
1.2048625501516492
-0.9989664770005797
1.5746383863951727
-0.49299566387919086
0.976555697522893
-1.7770923582853004
0.5438998259615387
-2.2863207736645865
-1.8770338442858883
-0.4756865358799353
1.1650833349069643
-1.6725735521058163
-0.5447946203878081
0.9035618308044527
-0.5521696412393764
-0.3087193749181583
-1.7236534978152755
0.2599795544494711
-0.07533708646816235
0.11772018290737381
-1.0733044382924575
-1.0940019794712421
2.050806679469411
-1.6168802646673945
0.5102895730477933
0.47781867518196197
0.330865948399255
-0.06324052672608362
-0.16725163734563708
0.17617996903556912
2.2757516419096167
1.005358602310778
-1.8794663334702215
0.5599291244127707
1.7940598717306773
0.6125500075641525
1.2115244314628568
1.672407417695647
0.9457580014380188
1.7484644329604349
-0.6359134048545136
-0.010328245416880748
0.36237601096751754
2.9985777842625008
0.6159468530245216
-0.7999459123885628
1.8187754340305455
0.15073127690210342
-0.6097645403457891
-0.42457747955567987
-0.2310164434596466
-0.8443298479697487
-0.4703994252141517
-0.6960659303058494
0.6666775707667947
-0.5969490823688275
0.21039344431655313
-0.33344670043829017
1.5590154347435652
0.7854772696710508
-0.1897912581074525
1.5814586114433242
-1.9304642027299412
-1.4248483753169914
-0.33797336793673177
-0.7964056940457195
-0.7525241928831657
-0.8913095229453097
-0.44073829339206577
0.5208063169444734
-0.7519864636845985
-0.6146948969256467
-1.0400247235537434
1.0739068827147897
-0.2332390198240738
-0.7722076078186233
0.33078199206221137
-2.0932934076492873
0.8615482742322702
-2.6708498603631368
-2.0668409524534423
-1.2204887238067754
-1.097828112738928
-1.5676159641174792
-0.493445876385223
0.34569442891249524
-0.11354001232973635
0.8799360680753455
0.5396000284029144
0.23409486697438595
-1.1423483336627813
-0.40702003400058434
0.04727655900272086
0.7513640526001295
0.3688424451690475
0.17303413225328124
-0.251165863396153
0.9970893615826122
0.4935793712593119
-0.6782428242219074
-0.431005176149287
0.27441764326376605
0.2831140270053966
-0.286407017935453
-0.313347656178773
1.394174822357296
-1.5228286673801943
1.3092972834520262
0.06611405158195116
-0.8501393529388642
1.0945053941907603
-0.8796386184052665
0.41925555721647134
1.35703378016336
2.147664916480619
-0.08201207704957025
4.018493053701823
1.1840604285077152
0.010138260557221052
0.029794352287625954
0.5225591591198726
-0.7084514683547566
-0.6339490251810712
-1.1971270338325561
-1.7514529306956068
-0.7632931757169952
-1.6748107822786296
-1.3738881562570056
-0.003741840350943611
0.03351159733341072
0.535381679617306
0.2221291103584015
-1.1274824751528743
0.634312141310405
-0.04570194088487694
0.47936972934731814
0.05268651292731074
-0.9450330206386893
0.6715843529742719
-0.37686965244484766
-0.062036667381049806
-0.4550954967492968
-0.08153187834787413
-0.476126791978034
-0.4485453426472318
2.260859398369232
-0.48806526824155216
0.6108443150575112
0.2531045954023098
0.2978938518738096
-0.18466660034820345
1.4571472335829279
-0.7087695011470572
0.28120317615164414
-0.6576188065952744
0.2926135927041582
1.0128953414662007
0.48886332926114956
0.9265885715937072
-1.1878886971375915
0.7688654800716976
0.005775576034289738
0.9548639121469924
0.8956698566366105
-0.588359730286974
-0.48882888424711246
-0.161869286061356
-0.4701474047463665
-0.10513712325289626
0.41355895499699596
-0.5199250683077761
0.7305391803953858
0.829440554886875
-0.6556762427712531
0.8792161415579801
-0.36584528464229393
-0.7964544443838464
-0.3867752028823086
-1.2549167824352716
0.9386654528934639
-1.1724810483324102
-0.1590523063853151
-1.1795909310482289
-0.370264163991183
-0.7135217324304467
1.1932089233263705
0.4508540515213575
-2.121530932473804
-0.5929386403604859
-1.0217560334543603
-1.3423550405328553
-0.12217457977180067
0.41448208324545277
0.3854958231894745
0.24115006128467928
0.7867100530629982
-0.15033053646983283
0.41043953978071473
-1.0183890659275083
-0.5366095263635547
-1.8435182009024642
1.7289427788870928
-0.7128820090430544
-0.25010870897045945
-1.0824038195906618
0.8120599851184106
-0.3740888089585064
1.5418117258401662
0.07321230565505656
-1.777923683890992
-0.7233257692884685
1.5850333289534448
0.004250214405407174
-0.5419492656429169
-0.6689516086085033
0.8027965826344896
-1.4586603922213766
0.7291293277467404
-0.547499689698649
-1.868818604339144
-0.4715324069793828
-0.6564458923374915
0.02105498372739165
-0.5924298618296954
-0.3815931974388465
0.9327141521616105
0.09562899790609242
-0.2579925420186921
-0.2357285973339977
0.21626064316513602
0.6763297914239306
1.196704729419201
0.3969046731194813
-0.14628781360439055
-0.6038938760312476
2.239913145476164
-0.6677702612796582
-0.30599691621187936
-0.36385666806234834
0.2210490660115389
-2.5081572904463876
0.3932746571508355
1.0575479933252967
0.2084625634011412
0.18985113201500056
-0.12045681906569006
-0.49219617012986494
0.7184329302598199
-0.822065124289923
-0.22013000589653894
-0.45920204889597177
-0.9603017648286469
0.32611331918669595
-0.12087001110711652
-0.2455902780189155
0.5830438282600425
-0.24665470417434684
-0.46305243895934767
0.20192465140970076
-1.9588383919786643
-0.6552305351163994
-0.2116557021674173
1.5435680452570553
0.7166574703039289
-0.04501208136589826
0.22054997461847123
-1.0983221149018636
1.240327714619061
-0.2339901475590735
0.5359797225880311
0.8063902211174678
-0.01714803477238925
0.8960643496729613
-2.0120354838900982
1.1903838212415472
0.6792919113311493
0.3449072250638127
0.906204431875122
2.0907739866126636
-0.7152620192436063
0.0435126445406528
-0.28106643967581874
-1.4410100721352865
0.7598947544833707
1.4556028956279443
-0.23761007968563871
-0.6513193094315672
-1.1284089259203989
0.2676473167955754
-0.45359369350107637
0.6060289420810032
0.38915907980365944
0.9646540198806217
-0.07259216112297072
-0.026044889713420807
0.7387190082430758
-3.146267015285159
0.5964619077505526
-0.27646561382690726
-0.9465975250988569
0.39403903600441526
-1.5562397886339006
0.06343240996131552
-0.48255109806956165
-0.4447048276221393
-0.2651043161674252
0.28253804875346444
-0.5619936561911442
1.2653490866861765
1.1504527588429192
-0.2603346805226086
-1.038092997873284
0.8034237318635481
-0.05158651748056378
1.014887210119471
-0.5851297640221557
-0.10658876869648169
-0.6797478867894551
0.5527517252636527
-0.369686018084262
0.1795733982727225
0.5067030872624784
0.8826542858817434
-0.022801358809056524
0.7027888471545066
-0.7943057952724351
-0.2888902222212146
-1.0061114881955988
0.7313400937728318
0.013611852292429914
0.7382971292150837
0.13094558833822573
1.7348814984253944
1.3389278060992003
-0.20081246866961425
-1.3949586226423674
0.3776346896777183
0.8217726773122084
-2.0238670154003264
1.3669675271849637
1.0219719978312405
-0.1069535839861018
0.9104960828575167
-0.1067708903454948
1.7247119088734013
-0.6459388703659035
1.066552096339899
-0.39755447836570884
-1.2748837618162316
-0.05275712372533372
-0.6196780940219998
-0.8221426580064802
-0.31515140336625613
0.008850026606102629
0.5486464420036626
-0.6786864255837164
-1.0703676581987756
-0.734588382591582
-0.14501968289895853
-1.876111188303981
1.4831626198001417
1.773378818713971
-1.137180671531242
0.13422245536685545
0.6282710775082231
0.2743593219685554
1.1925235952810722
-1.2602687874774112
0.1343227514487794
-0.011565081984619585
-1.5874458094566026
-0.07949655543158615
-0.8430350297295589
-1.5686831242238397
-0.23037976833882265
0.3517182804617042
-0.22396240291628616
-0.5700365332532741
1.87351338621053
0.3113802063335183
0.5293667774255035
1.2777999593141784
-0.21343959443677624
-0.4294983407598544
-0.7198086135869782
-0.6160487998404932
-0.34158885390557014
-0.41591036746560256
0.7092380583337934
-0.5492389475546449
-1.1379062019928048
1.0432695738686781
0.5885098430857638
-0.7651499358987128
-1.3180833675141654
-0.15175809093436224
0.24731265534271898
1.0886276414146903
-0.13235660080071046
-0.7367086379632279
0.4796479669597253
0.36776909151965004
1.7423935764213192
0.14583761775513732
-1.06200291084684
-1.0978778242915967
-1.4320262151034144
0.07197295900402632
-2.102869647087307
1.372098792053662
0.12583388255157799
0.4308041268844947
0.2270018912579669
0.06341420002090256
-0.9417645958740428
-0.2668966789381283
1.8832209557274262
0.3738146038903278
-0.2885252574629248
0.46615477774632735
-1.1080911179805075
0.051878596030468044
2.046724792033683
-1.5528343611089233
-0.3071068467325028
-1.2917641354424692
-1.263962018789727
0.5560649470116913
0.2394950161986036
-0.9473886716284304
-0.34262790686859074
1.3249854735303883
0.49759396750585627
-0.24004837948163246
-0.30135680791928454
-0.20133651200035071
1.0792544532103943
-0.6137661148220162
-1.2325977071910195
0.6573592268573558
-0.9756502202963575
1.1697275537113407
0.4669641926738604
-0.9401457112910181
-0.1270880716488843
0.28526616645339387
-0.12375676991656587
1.4072959946726207
-0.8287560238541841
-0.19645965571333365
-0.022285386490039267
-0.23298939180132588
0.5497036914486185
0.33058598319239246
0.4272953298268536
-0.7143842586437211
-2.5536708773738237
0.34117598683175926
-0.005285825708784812
1.248524785769549
-0.6470609168237692
-0.4451358332869735
-0.9527079616885026
-1.1058303261337226
1.7810660131921665
-0.4437227843266409
-0.38151435079269563
0.498644197053594
-0.5023848948539482
-1.8830698235002659
0.6479947603741528
0.8654329172844251
0.8439638442466724
-1.4563839243421148
-0.6022486917911856
-0.7244297481600431
-0.9265671220715965
-0.12226601363408345
-0.9653374038192217
0.8666206535045414
1.3270428911868346
-0.8579716295212529
0.2815156177244154
0.5123312962906089
0.6300630085263086
1.4160243152508714
0.34680467731489184
-1.2078661776928714
-0.37082281145930673
0.6818831613670739
-1.4704986028514138
-0.35129678919155627
-1.7474810749251424
0.2598665388489013
0.43146298664550103
-1.214667652784116
-1.245983958392542
-0.7837278630499628
-1.1934920374948537
1.5912150228905593
0.9713990133455791
1.4916137354908103
0.44825483263432986
-0.10823515048005744
-0.7068302662369954
-1.3448443127370227
0.4685293860175104
0.5919067913341074
0.6060343272105215
-1.0556475394403253
1.8885661287056483
1.5095608559786706
-0.5600295429154675
0.6102625688164267
0.4824917692859322
-0.5098933032266634
1.2239884869013713
0.9278354556981673
1.7063821483430772
0.010288730103771928
-0.536343656754909
-0.7500436717458666
-0.48642003875489165
-0.9664726814037071
1.2577111939634777
-0.3448511586795072
0.0062484982978089606
-0.20583128489274743
1.2910318243179804
0.9463228703267129
-1.6662187484487574
-0.9859233136513524
1.2656284415106933
1.6982989201085623
-0.07003140764627003
1.25770966468852
-0.17398890795921218
1.5186510730020097
0.00888314443807361
-0.6372588297665979
-0.03590803742536412
0.28873524125640343
0.014146710995648772
-2.399578987617597
-0.9148897411618074
-0.30084021579722986
0.2359099291633236
0.3946220762986251
0.6437257956918815
1.0590400138092144
0.03974218735932454
-0.6495152471977969
0.9107402585474228
0.2505319006938581
-0.16586646964859061
-0.7902190476627858
-0.5213295679271704
0.5030122204889326
-1.7592698648673482
1.31541798980882
-1.0338758767102123
-0.6454056633172073
0.23298796596924193
-0.433722887702886
0.2233310335204893
0.8076787803124503
1.318577111496946
-0.605315535665741
2.5184824914144555
0.7625383390567971
0.005463707438213262
0.1637138970766242
-0.017437107627405236
-3.8329637457107526
0.4342796398532546
-0.38555532371317325
0.18795198144814607
-0.22157093345501375
1.4921864907877325
1.6850729070469619
-2.1840300716982357
0.3975731320060775
-0.45792763465839154
0.13994370782995397
1.343711030579436
3.015527146242885
-1.6113485785027788
-0.0800014905685205
-0.36389749977751545
-1.6332416690644485
0.3980288647682757
1.7663227238628647
0.530601611207889
0.2326481834350405
0.7646869251158762
1.3155663644887112
0.7022346440742551
-0.4605810704387788
1.185757096660023
0.044037492454354614
-0.049526310276339656
-0.013917637114405558
0.6064797256390451
0.19477226036411163
1.4176302638186131
0.4858691826149363
1.1207462399322639
0.25499199239579823
-0.5468286742052099
-0.420218125895858
0.9046955668451696
0.08127373614521446
0.0015473170309267664
2.224944232970604
0.1192674035763985
0.12210243115944179
0.49471951900394967
0.6498017751467539
-0.47746639321463746
-0.022622209594238562
0.24972229102815205
1.431750136825744
1.0246271086475793
0.4697705753568122
0.5015988412046418
1.537742109883505
-1.2274931284626025
2.1489485478677417
-1.6763284397629705
-0.5884417611473448
-0.6247395665940283
1.7752061938307273
-0.1702021575680384
-1.9446811416250762
0.7238743644375645
0.7078937476085915
1.1930320664661922
0.3099311189481808
-0.37048926477245836
-0.026555485431794982
1.1102992461918872
0.3104846241352969
-1.7574179669805858
-0.7824223791727271
-0.7597631467249917
-0.008396824660433084
0.49215624445573564
1.7354254172972108
0.5300946983697689
0.8931484383791903
1.7639458277514912
-1.0795854849399407
0.6680936929169284
0.4136043253723225
0.41446403787544384
-1.190866360653074
0.9871107006694174
0.08280887683519428
0.21492894073456828
0.06158723087184741
-0.13306014935490326
-1.0162579317227043
1.6074811454590447
-0.07564889345707675
0.7698084206990297
1.9325805185934035
0.31477188586765115
